digraph Tree {
node [shape=box, style="filled, rounded", color="black", fontname=helvetica] ;
edge [fontname=helvetica] ;
0 [label="ip_src_subdomain_length <= 34.5\ngini = 0.5\nsamples = 81323\nvalue = [40661.5, 40661.5]\nclass = Regular Traffic", fillcolor="#e5813900"] ;
1 [label="ip_src_subdomain_length <= 13.5\ngini = 0.496\nsamples = 60884\nvalue = [29881.689, 35429.067]\nclass = Ad/Tracker Traffic", fillcolor="#399de528"] ;
0 -> 1 [labeldistance=2.5, labelangle=45, headlabel="True"] ;
2 [label="ip_dest_subdomain_length <= 0.001\ngini = 0.497\nsamples = 48492\nvalue = [24581.884, 21256.45]\nclass = Regular Traffic", fillcolor="#e5813922"] ;
1 -> 2 ;
3 [label="ip_src_length <= 34.5\ngini = 0.496\nsamples = 32122\nvalue = [15757.033, 18766.465]\nclass = Ad/Tracker Traffic", fillcolor="#399de529"] ;
2 -> 3 ;
4 [label="ip_src_length <= 13.5\ngini = 0.464\nsamples = 17043\nvalue = [7938.862, 13707.292]\nclass = Ad/Tracker Traffic", fillcolor="#399de56b"] ;
3 -> 4 ;
5 [label="ip_dest_subdomain_length <= 0.0\ngini = 0.448\nsamples = 8347\nvalue = [4389.344, 2252.372]\nclass = Regular Traffic", fillcolor="#e581397c"] ;
4 -> 5 ;
6 [label="ip_dest_subdomain_length <= 0.0\ngini = 0.487\nsamples = 5422\nvalue = [2789.225, 2014.759]\nclass = Regular Traffic", fillcolor="#e5813947"] ;
5 -> 6 ;
7 [label="ip_dest_subdomain_length <= 0.0\ngini = 0.33\nsamples = 4066\nvalue = [2196.341, 579.181]\nclass = Regular Traffic", fillcolor="#e58139bc"] ;
6 -> 7 ;
8 [label="ip_dest_subdomain_length <= 0.0\ngini = 0.414\nsamples = 2628\nvalue = [1396.559, 579.181]\nclass = Regular Traffic", fillcolor="#e5813995"] ;
7 -> 8 ;
9 [label="src_ip_freq <= 0.299\ngini = 0.392\nsamples = 2611\nvalue = [1394.89, 509.878]\nclass = Regular Traffic", fillcolor="#e58139a2"] ;
8 -> 9 ;
10 [label="ip_dest_subdomain_length <= 0.0\ngini = 0.048\nsamples = 352\nvalue = [195.218, 4.95]\nclass = Regular Traffic", fillcolor="#e58139f9"] ;
9 -> 10 ;
11 [label="gini = 0.0\nsamples = 335\nvalue = [186.319, 0.0]\nclass = Regular Traffic", fillcolor="#e58139ff"] ;
10 -> 11 ;
12 [label="ip_dest_subdomain_length <= 0.0\ngini = 0.459\nsamples = 17\nvalue = [8.899, 4.95]\nclass = Regular Traffic", fillcolor="#e5813971"] ;
10 -> 12 ;
13 [label="gini = 0.0\nsamples = 1\nvalue = [0.0, 4.95]\nclass = Ad/Tracker Traffic", fillcolor="#399de5ff"] ;
12 -> 13 ;
14 [label="gini = 0.0\nsamples = 16\nvalue = [8.899, 0.0]\nclass = Regular Traffic", fillcolor="#e58139ff"] ;
12 -> 14 ;
15 [label="ip_src_length <= 11.5\ngini = 0.417\nsamples = 2259\nvalue = [1199.672, 504.927]\nclass = Regular Traffic", fillcolor="#e5813994"] ;
9 -> 15 ;
16 [label="ip_dest_subdomain_length <= 0.0\ngini = 0.406\nsamples = 2238\nvalue = [1191.886, 470.275]\nclass = Regular Traffic", fillcolor="#e581399a"] ;
15 -> 16 ;
17 [label="ip_dest_subdomain_length <= 0.0\ngini = 0.335\nsamples = 1526\nvalue = [823.697, 222.762]\nclass = Regular Traffic", fillcolor="#e58139ba"] ;
16 -> 17 ;
18 [label="ip_dest_subdomain_length <= 0.0\ngini = 0.43\nsamples = 781\nvalue = [413.239, 188.11]\nclass = Regular Traffic", fillcolor="#e581398b"] ;
17 -> 18 ;
19 [label="ssl <= 0.0\ngini = 0.069\nsamples = 241\nvalue = [133.482, 4.95]\nclass = Regular Traffic", fillcolor="#e58139f6"] ;
18 -> 19 ;
20 [label="gini = -0.0\nsamples = 185\nvalue = [102.893, 0.0]\nclass = Regular Traffic", fillcolor="#e58139ff"] ;
19 -> 20 ;
21 [label="ssl <= 0.0\ngini = 0.24\nsamples = 56\nvalue = [30.59, 4.95]\nclass = Regular Traffic", fillcolor="#e58139d6"] ;
19 -> 21 ;
22 [label="ip_dest_subdomain_length <= 0.0\ngini = 0.3\nsamples = 3\nvalue = [1.112, 4.95]\nclass = Ad/Tracker Traffic", fillcolor="#399de5c6"] ;
21 -> 22 ;
23 [label="gini = 0.0\nsamples = 1\nvalue = [0.0, 4.95]\nclass = Ad/Tracker Traffic", fillcolor="#399de5ff"] ;
22 -> 23 ;
24 [label="gini = -0.0\nsamples = 2\nvalue = [1.112, 0.0]\nclass = Regular Traffic", fillcolor="#e58139ff"] ;
22 -> 24 ;
25 [label="gini = 0.0\nsamples = 53\nvalue = [29.477, 0.0]\nclass = Regular Traffic", fillcolor="#e58139ff"] ;
21 -> 25 ;
26 [label="ip_dest_subdomain_length <= 0.0\ngini = 0.478\nsamples = 540\nvalue = [279.757, 183.16]\nclass = Regular Traffic", fillcolor="#e5813958"] ;
18 -> 26 ;
27 [label="ip_dest_subdomain_length <= 0.0\ngini = 0.463\nsamples = 512\nvalue = [267.521, 153.458]\nclass = Regular Traffic", fillcolor="#e581396d"] ;
26 -> 27 ;
28 [label="ip_dest_subdomain_length <= 0.0\ngini = 0.493\nsamples = 331\nvalue = [169.078, 133.657]\nclass = Regular Traffic", fillcolor="#e5813935"] ;
27 -> 28 ;
29 [label="ssl <= 0.0\ngini = 0.433\nsamples = 283\nvalue = [149.611, 69.304]\nclass = Regular Traffic", fillcolor="#e5813989"] ;
28 -> 29 ;
30 [label="ssl <= 0.0\ngini = 0.474\nsamples = 212\nvalue = [110.123, 69.304]\nclass = Regular Traffic", fillcolor="#e581395f"] ;
29 -> 30 ;
31 [label="ssl <= 0.0\ngini = 0.434\nsamples = 200\nvalue = [105.674, 49.503]\nclass = Regular Traffic", fillcolor="#e5813988"] ;
30 -> 31 ;
32 [label="ssl <= 0.0\ngini = 0.483\nsamples = 139\nvalue = [71.747, 49.503]\nclass = Regular Traffic", fillcolor="#e581394f"] ;
31 -> 32 ;
33 [label="gini = 0.0\nsamples = 40\nvalue = [22.247, 0.0]\nclass = Regular Traffic", fillcolor="#e58139ff"] ;
32 -> 33 ;
34 [label="dest_ip_freq <= 0.287\ngini = 0.5\nsamples = 99\nvalue = [49.5, 49.503]\nclass = Ad/Tracker Traffic", fillcolor="#399de500"] ;
32 -> 34 ;
35 [label="gini = 0.0\nsamples = 19\nvalue = [10.567, 0.0]\nclass = Regular Traffic", fillcolor="#e58139ff"] ;
34 -> 35 ;
36 [label="ip_dest_subdomain_length <= 0.0\ngini = 0.493\nsamples = 80\nvalue = [38.932, 49.503]\nclass = Ad/Tracker Traffic", fillcolor="#399de536"] ;
34 -> 36 ;
37 [label="ip_dest_subdomain_length <= 0.0\ngini = 0.472\nsamples = 65\nvalue = [30.59, 49.503]\nclass = Ad/Tracker Traffic", fillcolor="#399de561"] ;
36 -> 37 ;
38 [label="ip_src_length <= 3.5\ngini = 0.355\nsamples = 11\nvalue = [4.449, 14.851]\nclass = Ad/Tracker Traffic", fillcolor="#399de5b3"] ;
37 -> 38 ;
39 [label="ssl <= 0.0\ngini = 0.3\nsamples = 9\nvalue = [3.337, 14.851]\nclass = Ad/Tracker Traffic", fillcolor="#399de5c6"] ;
38 -> 39 ;
40 [label="ssl <= 0.0\ngini = 0.227\nsamples = 7\nvalue = [2.225, 14.851]\nclass = Ad/Tracker Traffic", fillcolor="#399de5d9"] ;
39 -> 40 ;
41 [label="ssl <= 0.0\ngini = 0.428\nsamples = 5\nvalue = [2.225, 4.95]\nclass = Ad/Tracker Traffic", fillcolor="#399de58c"] ;
40 -> 41 ;
42 [label="gini = 0.182\nsamples = 2\nvalue = [0.556, 4.95]\nclass = Ad/Tracker Traffic", fillcolor="#399de5e2"] ;
41 -> 42 ;
43 [label="gini = -0.0\nsamples = 3\nvalue = [1.669, 0.0]\nclass = Regular Traffic", fillcolor="#e58139ff"] ;
41 -> 43 ;
44 [label="gini = 0.0\nsamples = 2\nvalue = [0.0, 9.901]\nclass = Ad/Tracker Traffic", fillcolor="#399de5ff"] ;
40 -> 44 ;
45 [label="gini = -0.0\nsamples = 2\nvalue = [1.112, 0.0]\nclass = Regular Traffic", fillcolor="#e58139ff"] ;
39 -> 45 ;
46 [label="gini = -0.0\nsamples = 2\nvalue = [1.112, 0.0]\nclass = Regular Traffic", fillcolor="#e58139ff"] ;
38 -> 46 ;
47 [label="ssl <= 0.0\ngini = 0.49\nsamples = 54\nvalue = [26.14, 34.652]\nclass = Ad/Tracker Traffic", fillcolor="#399de53f"] ;
37 -> 47 ;
48 [label="gini = 0.0\nsamples = 9\nvalue = [5.006, 0.0]\nclass = Regular Traffic", fillcolor="#e58139ff"] ;
47 -> 48 ;
49 [label="ip_dest_subdomain_length <= 0.0\ngini = 0.471\nsamples = 45\nvalue = [21.135, 34.652]\nclass = Ad/Tracker Traffic", fillcolor="#399de563"] ;
47 -> 49 ;
50 [label="gini = 0.0\nsamples = 6\nvalue = [3.337, 0.0]\nclass = Regular Traffic", fillcolor="#e58139ff"] ;
49 -> 50 ;
51 [label="ssl <= 0.0\ngini = 0.448\nsamples = 39\nvalue = [17.798, 34.652]\nclass = Ad/Tracker Traffic", fillcolor="#399de57c"] ;
49 -> 51 ;
52 [label="ip_dest_length <= 0.5\ngini = 0.182\nsamples = 4\nvalue = [1.112, 9.901]\nclass = Ad/Tracker Traffic", fillcolor="#399de5e2"] ;
51 -> 52 ;
53 [label="gini = 0.182\nsamples = 2\nvalue = [0.556, 4.95]\nclass = Ad/Tracker Traffic", fillcolor="#399de5e2"] ;
52 -> 53 ;
54 [label="gini = 0.182\nsamples = 2\nvalue = [0.556, 4.95]\nclass = Ad/Tracker Traffic", fillcolor="#399de5e2"] ;
52 -> 54 ;
55 [label="ssl <= 0.0\ngini = 0.481\nsamples = 35\nvalue = [16.685, 24.751]\nclass = Ad/Tracker Traffic", fillcolor="#399de553"] ;
51 -> 55 ;
56 [label="gini = 0.0\nsamples = 12\nvalue = [6.674, 0.0]\nclass = Regular Traffic", fillcolor="#e58139ff"] ;
55 -> 56 ;
57 [label="ip_dest_subdomain_length <= 0.0\ngini = 0.41\nsamples = 23\nvalue = [10.011, 24.751]\nclass = Ad/Tracker Traffic", fillcolor="#399de598"] ;
55 -> 57 ;
58 [label="ip_dest_length <= 0.5\ngini = 0.182\nsamples = 4\nvalue = [1.112, 9.901]\nclass = Ad/Tracker Traffic", fillcolor="#399de5e2"] ;
57 -> 58 ;
59 [label="gini = 0.182\nsamples = 2\nvalue = [0.556, 4.95]\nclass = Ad/Tracker Traffic", fillcolor="#399de5e2"] ;
58 -> 59 ;
60 [label="gini = 0.182\nsamples = 2\nvalue = [0.556, 4.95]\nclass = Ad/Tracker Traffic", fillcolor="#399de5e2"] ;
58 -> 60 ;
61 [label="ip_dest_subdomain_length <= 0.0\ngini = 0.469\nsamples = 19\nvalue = [8.899, 14.851]\nclass = Ad/Tracker Traffic", fillcolor="#399de566"] ;
57 -> 61 ;
62 [label="gini = 0.0\nsamples = 8\nvalue = [4.449, 0.0]\nclass = Regular Traffic", fillcolor="#e58139ff"] ;
61 -> 62 ;
63 [label="ip_dest_subdomain_length <= 0.0\ngini = 0.355\nsamples = 11\nvalue = [4.449, 14.851]\nclass = Ad/Tracker Traffic", fillcolor="#399de5b3"] ;
61 -> 63 ;
64 [label="ssl <= 0.0\ngini = 0.101\nsamples = 3\nvalue = [0.556, 9.901]\nclass = Ad/Tracker Traffic", fillcolor="#399de5f1"] ;
63 -> 64 ;
65 [label="gini = 0.0\nsamples = 1\nvalue = [0.556, 0.0]\nclass = Regular Traffic", fillcolor="#e58139ff"] ;
64 -> 65 ;
66 [label="gini = -0.0\nsamples = 2\nvalue = [0.0, 9.901]\nclass = Ad/Tracker Traffic", fillcolor="#399de5ff"] ;
64 -> 66 ;
67 [label="ssl <= 0.0\ngini = 0.493\nsamples = 8\nvalue = [3.893, 4.95]\nclass = Ad/Tracker Traffic", fillcolor="#399de536"] ;
63 -> 67 ;
68 [label="ip_dest_length <= 0.5\ngini = 0.182\nsamples = 2\nvalue = [0.556, 4.95]\nclass = Ad/Tracker Traffic", fillcolor="#399de5e2"] ;
67 -> 68 ;
69 [label="gini = 0.0\nsamples = 1\nvalue = [0.0, 4.95]\nclass = Ad/Tracker Traffic", fillcolor="#399de5ff"] ;
68 -> 69 ;
70 [label="gini = -0.0\nsamples = 1\nvalue = [0.556, 0.0]\nclass = Regular Traffic", fillcolor="#e58139ff"] ;
68 -> 70 ;
71 [label="gini = 0.0\nsamples = 6\nvalue = [3.337, 0.0]\nclass = Regular Traffic", fillcolor="#e58139ff"] ;
67 -> 71 ;
72 [label="gini = -0.0\nsamples = 15\nvalue = [8.343, 0.0]\nclass = Regular Traffic", fillcolor="#e58139ff"] ;
36 -> 72 ;
73 [label="gini = 0.0\nsamples = 61\nvalue = [33.927, 0.0]\nclass = Regular Traffic", fillcolor="#e58139ff"] ;
31 -> 73 ;
74 [label="ip_dest_subdomain_length <= 0.0\ngini = 0.3\nsamples = 12\nvalue = [4.449, 19.801]\nclass = Ad/Tracker Traffic", fillcolor="#399de5c6"] ;
30 -> 74 ;
75 [label="dest_ip_freq <= 0.287\ngini = 0.216\nsamples = 9\nvalue = [2.781, 19.801]\nclass = Ad/Tracker Traffic", fillcolor="#399de5db"] ;
74 -> 75 ;
76 [label="gini = 0.0\nsamples = 1\nvalue = [0.556, 0.0]\nclass = Regular Traffic", fillcolor="#e58139ff"] ;
75 -> 76 ;
77 [label="ip_dest_subdomain_length <= 0.0\ngini = 0.182\nsamples = 8\nvalue = [2.225, 19.801]\nclass = Ad/Tracker Traffic", fillcolor="#399de5e2"] ;
75 -> 77 ;
78 [label="ip_dest_subdomain_length <= 0.0\ngini = 0.377\nsamples = 4\nvalue = [1.669, 4.95]\nclass = Ad/Tracker Traffic", fillcolor="#399de5a9"] ;
77 -> 78 ;
79 [label="gini = 0.0\nsamples = 1\nvalue = [0.0, 4.95]\nclass = Ad/Tracker Traffic", fillcolor="#399de5ff"] ;
78 -> 79 ;
80 [label="gini = -0.0\nsamples = 3\nvalue = [1.669, 0.0]\nclass = Regular Traffic", fillcolor="#e58139ff"] ;
78 -> 80 ;
81 [label="ssl <= 0.0\ngini = 0.07\nsamples = 4\nvalue = [0.556, 14.851]\nclass = Ad/Tracker Traffic", fillcolor="#399de5f5"] ;
77 -> 81 ;
82 [label="gini = 0.0\nsamples = 1\nvalue = [0.556, 0.0]\nclass = Regular Traffic", fillcolor="#e58139ff"] ;
81 -> 82 ;
83 [label="gini = 0.0\nsamples = 3\nvalue = [0.0, 14.851]\nclass = Ad/Tracker Traffic", fillcolor="#399de5ff"] ;
81 -> 83 ;
84 [label="gini = -0.0\nsamples = 3\nvalue = [1.669, 0.0]\nclass = Regular Traffic", fillcolor="#e58139ff"] ;
74 -> 84 ;
85 [label="gini = 0.0\nsamples = 71\nvalue = [39.489, 0.0]\nclass = Regular Traffic", fillcolor="#e58139ff"] ;
29 -> 85 ;
86 [label="ssl <= 0.0\ngini = 0.357\nsamples = 48\nvalue = [19.466, 64.353]\nclass = Ad/Tracker Traffic", fillcolor="#399de5b2"] ;
28 -> 86 ;
87 [label="gini = 0.0\nsamples = 3\nvalue = [1.669, 0.0]\nclass = Regular Traffic", fillcolor="#e58139ff"] ;
86 -> 87 ;
88 [label="ssl <= 0.0\ngini = 0.339\nsamples = 45\nvalue = [17.798, 64.353]\nclass = Ad/Tracker Traffic", fillcolor="#399de5b8"] ;
86 -> 88 ;
89 [label="ssl <= 0.0\ngini = 0.272\nsamples = 30\nvalue = [10.567, 54.453]\nclass = Ad/Tracker Traffic", fillcolor="#399de5ce"] ;
88 -> 89 ;
90 [label="ssl <= 0.0\ngini = 0.405\nsamples = 18\nvalue = [7.786, 19.801]\nclass = Ad/Tracker Traffic", fillcolor="#399de59b"] ;
89 -> 90 ;
91 [label="ssl <= 0.0\ngini = 0.216\nsamples = 9\nvalue = [2.781, 19.801]\nclass = Ad/Tracker Traffic", fillcolor="#399de5db"] ;
90 -> 91 ;
92 [label="ssl <= 0.0\ngini = 0.13\nsamples = 5\nvalue = [1.112, 14.851]\nclass = Ad/Tracker Traffic", fillcolor="#399de5ec"] ;
91 -> 92 ;
93 [label="ip_dest_length <= 0.5\ngini = 0.3\nsamples = 3\nvalue = [1.112, 4.95]\nclass = Ad/Tracker Traffic", fillcolor="#399de5c6"] ;
92 -> 93 ;
94 [label="gini = 0.182\nsamples = 2\nvalue = [0.556, 4.95]\nclass = Ad/Tracker Traffic", fillcolor="#399de5e2"] ;
93 -> 94 ;
95 [label="gini = -0.0\nsamples = 1\nvalue = [0.556, 0.0]\nclass = Regular Traffic", fillcolor="#e58139ff"] ;
93 -> 95 ;
96 [label="gini = 0.0\nsamples = 2\nvalue = [0.0, 9.901]\nclass = Ad/Tracker Traffic", fillcolor="#399de5ff"] ;
92 -> 96 ;
97 [label="ip_dest_length <= 0.5\ngini = 0.377\nsamples = 4\nvalue = [1.669, 4.95]\nclass = Ad/Tracker Traffic", fillcolor="#399de5a9"] ;
91 -> 97 ;
98 [label="ssl <= 0.0\ngini = 0.3\nsamples = 3\nvalue = [1.112, 4.95]\nclass = Ad/Tracker Traffic", fillcolor="#399de5c6"] ;
97 -> 98 ;
99 [label="gini = 0.0\nsamples = 1\nvalue = [0.556, 0.0]\nclass = Regular Traffic", fillcolor="#e58139ff"] ;
98 -> 99 ;
100 [label="gini = 0.182\nsamples = 2\nvalue = [0.556, 4.95]\nclass = Ad/Tracker Traffic", fillcolor="#399de5e2"] ;
98 -> 100 ;
101 [label="gini = -0.0\nsamples = 1\nvalue = [0.556, 0.0]\nclass = Regular Traffic", fillcolor="#e58139ff"] ;
97 -> 101 ;
102 [label="gini = -0.0\nsamples = 9\nvalue = [5.006, 0.0]\nclass = Regular Traffic", fillcolor="#e58139ff"] ;
90 -> 102 ;
103 [label="ssl <= 0.0\ngini = 0.138\nsamples = 12\nvalue = [2.781, 34.652]\nclass = Ad/Tracker Traffic", fillcolor="#399de5eb"] ;
89 -> 103 ;
104 [label="ssl <= 0.0\ngini = 0.053\nsamples = 5\nvalue = [0.556, 19.801]\nclass = Ad/Tracker Traffic", fillcolor="#399de5f8"] ;
103 -> 104 ;
105 [label="gini = 0.0\nsamples = 2\nvalue = [0.0, 9.901]\nclass = Ad/Tracker Traffic", fillcolor="#399de5ff"] ;
104 -> 105 ;
106 [label="ssl <= 0.0\ngini = 0.101\nsamples = 3\nvalue = [0.556, 9.901]\nclass = Ad/Tracker Traffic", fillcolor="#399de5f1"] ;
104 -> 106 ;
107 [label="gini = 0.0\nsamples = 1\nvalue = [0.556, 0.0]\nclass = Regular Traffic", fillcolor="#e58139ff"] ;
106 -> 107 ;
108 [label="gini = -0.0\nsamples = 2\nvalue = [0.0, 9.901]\nclass = Ad/Tracker Traffic", fillcolor="#399de5ff"] ;
106 -> 108 ;
109 [label="ssl <= 0.0\ngini = 0.227\nsamples = 7\nvalue = [2.225, 14.851]\nclass = Ad/Tracker Traffic", fillcolor="#399de5d9"] ;
103 -> 109 ;
110 [label="gini = 0.0\nsamples = 2\nvalue = [1.112, 0.0]\nclass = Regular Traffic", fillcolor="#e58139ff"] ;
109 -> 110 ;
111 [label="ip_dest_subdomain_length <= 0.0\ngini = 0.13\nsamples = 5\nvalue = [1.112, 14.851]\nclass = Ad/Tracker Traffic", fillcolor="#399de5ec"] ;
109 -> 111 ;
112 [label="ssl <= 0.0\ngini = 0.3\nsamples = 3\nvalue = [1.112, 4.95]\nclass = Ad/Tracker Traffic", fillcolor="#399de5c6"] ;
111 -> 112 ;
113 [label="gini = -0.0\nsamples = 2\nvalue = [1.112, 0.0]\nclass = Regular Traffic", fillcolor="#e58139ff"] ;
112 -> 113 ;
114 [label="gini = 0.0\nsamples = 1\nvalue = [0.0, 4.95]\nclass = Ad/Tracker Traffic", fillcolor="#399de5ff"] ;
112 -> 114 ;
115 [label="gini = 0.0\nsamples = 2\nvalue = [0.0, 9.901]\nclass = Ad/Tracker Traffic", fillcolor="#399de5ff"] ;
111 -> 115 ;
116 [label="ssl <= 0.0\ngini = 0.488\nsamples = 15\nvalue = [7.23, 9.901]\nclass = Ad/Tracker Traffic", fillcolor="#399de545"] ;
88 -> 116 ;
117 [label="gini = -0.0\nsamples = 11\nvalue = [6.118, 0.0]\nclass = Regular Traffic", fillcolor="#e58139ff"] ;
116 -> 117 ;
118 [label="ssl <= 0.0\ngini = 0.182\nsamples = 4\nvalue = [1.112, 9.901]\nclass = Ad/Tracker Traffic", fillcolor="#399de5e2"] ;
116 -> 118 ;
119 [label="gini = 0.0\nsamples = 2\nvalue = [0.0, 9.901]\nclass = Ad/Tracker Traffic", fillcolor="#399de5ff"] ;
118 -> 119 ;
120 [label="gini = -0.0\nsamples = 2\nvalue = [1.112, 0.0]\nclass = Regular Traffic", fillcolor="#e58139ff"] ;
118 -> 120 ;
121 [label="dest_ip_freq <= 0.287\ngini = 0.279\nsamples = 181\nvalue = [98.443, 19.801]\nclass = Regular Traffic", fillcolor="#e58139cc"] ;
27 -> 121 ;
122 [label="ssl <= 0.0\ngini = 0.493\nsamples = 49\nvalue = [25.028, 19.801]\nclass = Regular Traffic", fillcolor="#e5813935"] ;
121 -> 122 ;
123 [label="ssl <= 0.0\ngini = 0.414\nsamples = 45\nvalue = [23.916, 9.901]\nclass = Regular Traffic", fillcolor="#e5813995"] ;
122 -> 123 ;
124 [label="ssl <= 0.0\ngini = 0.5\nsamples = 20\nvalue = [10.011, 9.901]\nclass = Regular Traffic", fillcolor="#e5813903"] ;
123 -> 124 ;
125 [label="gini = 0.0\nsamples = 8\nvalue = [4.449, 0.0]\nclass = Regular Traffic", fillcolor="#e58139ff"] ;
124 -> 125 ;
126 [label="ip_dest_subdomain_length <= 0.0\ngini = 0.461\nsamples = 12\nvalue = [5.562, 9.901]\nclass = Ad/Tracker Traffic", fillcolor="#399de570"] ;
124 -> 126 ;
127 [label="ip_dest_subdomain_length <= 0.0\ngini = 0.405\nsamples = 9\nvalue = [3.893, 9.901]\nclass = Ad/Tracker Traffic", fillcolor="#399de59b"] ;
126 -> 127 ;
128 [label="gini = 0.0\nsamples = 3\nvalue = [1.669, 0.0]\nclass = Regular Traffic", fillcolor="#e58139ff"] ;
127 -> 128 ;
129 [label="dest_ip_freq <= 0.032\ngini = 0.3\nsamples = 6\nvalue = [2.225, 9.901]\nclass = Ad/Tracker Traffic", fillcolor="#399de5c6"] ;
127 -> 129 ;
130 [label="gini = 0.0\nsamples = 2\nvalue = [1.112, 0.0]\nclass = Regular Traffic", fillcolor="#e58139ff"] ;
129 -> 130 ;
131 [label="ssl <= 0.0\ngini = 0.182\nsamples = 4\nvalue = [1.112, 9.901]\nclass = Ad/Tracker Traffic", fillcolor="#399de5e2"] ;
129 -> 131 ;
132 [label="gini = 0.0\nsamples = 1\nvalue = [0.0, 4.95]\nclass = Ad/Tracker Traffic", fillcolor="#399de5ff"] ;
131 -> 132 ;
133 [label="ssl <= 0.0\ngini = 0.3\nsamples = 3\nvalue = [1.112, 4.95]\nclass = Ad/Tracker Traffic", fillcolor="#399de5c6"] ;
131 -> 133 ;
134 [label="gini = 0.0\nsamples = 1\nvalue = [0.556, 0.0]\nclass = Regular Traffic", fillcolor="#e58139ff"] ;
133 -> 134 ;
135 [label="gini = 0.182\nsamples = 2\nvalue = [0.556, 4.95]\nclass = Ad/Tracker Traffic", fillcolor="#399de5e2"] ;
133 -> 135 ;
136 [label="gini = 0.0\nsamples = 3\nvalue = [1.669, 0.0]\nclass = Regular Traffic", fillcolor="#e58139ff"] ;
126 -> 136 ;
137 [label="gini = -0.0\nsamples = 25\nvalue = [13.904, 0.0]\nclass = Regular Traffic", fillcolor="#e58139ff"] ;
123 -> 137 ;
138 [label="ssl <= 0.0\ngini = 0.182\nsamples = 4\nvalue = [1.112, 9.901]\nclass = Ad/Tracker Traffic", fillcolor="#399de5e2"] ;
122 -> 138 ;
139 [label="gini = 0.0\nsamples = 2\nvalue = [0.0, 9.901]\nclass = Ad/Tracker Traffic", fillcolor="#399de5ff"] ;
138 -> 139 ;
140 [label="gini = 0.0\nsamples = 2\nvalue = [1.112, 0.0]\nclass = Regular Traffic", fillcolor="#e58139ff"] ;
138 -> 140 ;
141 [label="gini = -0.0\nsamples = 132\nvalue = [73.415, 0.0]\nclass = Regular Traffic", fillcolor="#e58139ff"] ;
121 -> 141 ;
142 [label="ssl <= 0.0\ngini = 0.413\nsamples = 28\nvalue = [12.236, 29.702]\nclass = Ad/Tracker Traffic", fillcolor="#399de596"] ;
26 -> 142 ;
143 [label="ip_dest_length <= 0.5\ngini = 0.209\nsamples = 11\nvalue = [3.337, 24.751]\nclass = Ad/Tracker Traffic", fillcolor="#399de5dd"] ;
142 -> 143 ;
144 [label="dest_ip_freq <= 0.287\ngini = 0.151\nsamples = 9\nvalue = [2.225, 24.751]\nclass = Ad/Tracker Traffic", fillcolor="#399de5e8"] ;
143 -> 144 ;
145 [label="ssl <= 0.0\ngini = 0.053\nsamples = 5\nvalue = [0.556, 19.801]\nclass = Ad/Tracker Traffic", fillcolor="#399de5f8"] ;
144 -> 145 ;
146 [label="gini = 0.0\nsamples = 2\nvalue = [0.0, 9.901]\nclass = Ad/Tracker Traffic", fillcolor="#399de5ff"] ;
145 -> 146 ;
147 [label="ssl <= 0.0\ngini = 0.101\nsamples = 3\nvalue = [0.556, 9.901]\nclass = Ad/Tracker Traffic", fillcolor="#399de5f1"] ;
145 -> 147 ;
148 [label="gini = 0.0\nsamples = 1\nvalue = [0.556, 0.0]\nclass = Regular Traffic", fillcolor="#e58139ff"] ;
147 -> 148 ;
149 [label="gini = 0.0\nsamples = 2\nvalue = [0.0, 9.901]\nclass = Ad/Tracker Traffic", fillcolor="#399de5ff"] ;
147 -> 149 ;
150 [label="ssl <= 0.0\ngini = 0.377\nsamples = 4\nvalue = [1.669, 4.95]\nclass = Ad/Tracker Traffic", fillcolor="#399de5a9"] ;
144 -> 150 ;
151 [label="gini = 0.0\nsamples = 1\nvalue = [0.0, 4.95]\nclass = Ad/Tracker Traffic", fillcolor="#399de5ff"] ;
150 -> 151 ;
152 [label="gini = 0.0\nsamples = 3\nvalue = [1.669, 0.0]\nclass = Regular Traffic", fillcolor="#e58139ff"] ;
150 -> 152 ;
153 [label="gini = -0.0\nsamples = 2\nvalue = [1.112, 0.0]\nclass = Regular Traffic", fillcolor="#e58139ff"] ;
143 -> 153 ;
154 [label="ssl <= 0.0\ngini = 0.459\nsamples = 17\nvalue = [8.899, 4.95]\nclass = Regular Traffic", fillcolor="#e5813971"] ;
142 -> 154 ;
155 [label="gini = 0.0\nsamples = 9\nvalue = [5.006, 0.0]\nclass = Regular Traffic", fillcolor="#e58139ff"] ;
154 -> 155 ;
156 [label="ssl <= 0.0\ngini = 0.493\nsamples = 8\nvalue = [3.893, 4.95]\nclass = Ad/Tracker Traffic", fillcolor="#399de536"] ;
154 -> 156 ;
157 [label="gini = 0.0\nsamples = 1\nvalue = [0.0, 4.95]\nclass = Ad/Tracker Traffic", fillcolor="#399de5ff"] ;
156 -> 157 ;
158 [label="gini = 0.0\nsamples = 7\nvalue = [3.893, 0.0]\nclass = Regular Traffic", fillcolor="#e58139ff"] ;
156 -> 158 ;
159 [label="ip_dest_subdomain_length <= 0.0\ngini = 0.144\nsamples = 745\nvalue = [410.458, 34.652]\nclass = Regular Traffic", fillcolor="#e58139e9"] ;
17 -> 159 ;
160 [label="ip_dest_subdomain_length <= 0.0\ngini = 0.24\nsamples = 391\nvalue = [213.572, 34.652]\nclass = Regular Traffic", fillcolor="#e58139d6"] ;
159 -> 160 ;
161 [label="ip_dest_subdomain_length <= 0.0\ngini = 0.085\nsamples = 382\nvalue = [211.347, 9.901]\nclass = Regular Traffic", fillcolor="#e58139f3"] ;
160 -> 161 ;
162 [label="gini = 0.0\nsamples = 191\nvalue = [106.23, 0.0]\nclass = Regular Traffic", fillcolor="#e58139ff"] ;
161 -> 162 ;
163 [label="ip_dest_subdomain_length <= 0.0\ngini = 0.157\nsamples = 191\nvalue = [105.117, 9.901]\nclass = Regular Traffic", fillcolor="#e58139e7"] ;
161 -> 163 ;
164 [label="ssl <= 0.0\ngini = 0.446\nsamples = 11\nvalue = [5.006, 9.901]\nclass = Ad/Tracker Traffic", fillcolor="#399de57e"] ;
163 -> 164 ;
165 [label="ssl <= 0.0\ngini = 0.377\nsamples = 8\nvalue = [3.337, 9.901]\nclass = Ad/Tracker Traffic", fillcolor="#399de5a9"] ;
164 -> 165 ;
166 [label="gini = 0.0\nsamples = 2\nvalue = [1.112, 0.0]\nclass = Regular Traffic", fillcolor="#e58139ff"] ;
165 -> 166 ;
167 [label="ssl <= 0.0\ngini = 0.3\nsamples = 6\nvalue = [2.225, 9.901]\nclass = Ad/Tracker Traffic", fillcolor="#399de5c6"] ;
165 -> 167 ;
168 [label="gini = 0.0\nsamples = 1\nvalue = [0.0, 4.95]\nclass = Ad/Tracker Traffic", fillcolor="#399de5ff"] ;
167 -> 168 ;
169 [label="ssl <= 0.0\ngini = 0.428\nsamples = 5\nvalue = [2.225, 4.95]\nclass = Ad/Tracker Traffic", fillcolor="#399de58c"] ;
167 -> 169 ;
170 [label="gini = -0.0\nsamples = 4\nvalue = [2.225, 0.0]\nclass = Regular Traffic", fillcolor="#e58139ff"] ;
169 -> 170 ;
171 [label="gini = 0.0\nsamples = 1\nvalue = [0.0, 4.95]\nclass = Ad/Tracker Traffic", fillcolor="#399de5ff"] ;
169 -> 171 ;
172 [label="gini = 0.0\nsamples = 3\nvalue = [1.669, 0.0]\nclass = Regular Traffic", fillcolor="#e58139ff"] ;
164 -> 172 ;
173 [label="gini = -0.0\nsamples = 180\nvalue = [100.112, 0.0]\nclass = Regular Traffic", fillcolor="#e58139ff"] ;
163 -> 173 ;
174 [label="dest_ip_freq <= 0.287\ngini = 0.151\nsamples = 9\nvalue = [2.225, 24.751]\nclass = Ad/Tracker Traffic", fillcolor="#399de5e8"] ;
160 -> 174 ;
175 [label="gini = 0.0\nsamples = 4\nvalue = [2.225, 0.0]\nclass = Regular Traffic", fillcolor="#e58139ff"] ;
174 -> 175 ;
176 [label="gini = 0.0\nsamples = 5\nvalue = [0.0, 24.751]\nclass = Ad/Tracker Traffic", fillcolor="#399de5ff"] ;
174 -> 176 ;
177 [label="gini = -0.0\nsamples = 354\nvalue = [196.886, 0.0]\nclass = Regular Traffic", fillcolor="#e58139ff"] ;
159 -> 177 ;
178 [label="ip_dest_subdomain_length <= 0.0\ngini = 0.481\nsamples = 712\nvalue = [368.189, 247.513]\nclass = Regular Traffic", fillcolor="#e5813954"] ;
16 -> 178 ;
179 [label="gini = 0.0\nsamples = 11\nvalue = [0.0, 54.453]\nclass = Ad/Tracker Traffic", fillcolor="#399de5ff"] ;
178 -> 179 ;
180 [label="ip_dest_subdomain_length <= 0.0\ngini = 0.451\nsamples = 701\nvalue = [368.189, 193.06]\nclass = Regular Traffic", fillcolor="#e5813979"] ;
178 -> 180 ;
181 [label="gini = 0.0\nsamples = 141\nvalue = [78.421, 0.0]\nclass = Regular Traffic", fillcolor="#e58139ff"] ;
180 -> 181 ;
182 [label="ip_dest_subdomain_length <= 0.0\ngini = 0.48\nsamples = 560\nvalue = [289.768, 193.06]\nclass = Regular Traffic", fillcolor="#e5813955"] ;
180 -> 182 ;
183 [label="ip_dest_subdomain_length <= 0.0\ngini = 0.456\nsamples = 105\nvalue = [48.387, 89.105]\nclass = Ad/Tracker Traffic", fillcolor="#399de575"] ;
182 -> 183 ;
184 [label="dest_ip_freq <= 0.287\ngini = 0.49\nsamples = 64\nvalue = [32.814, 24.751]\nclass = Regular Traffic", fillcolor="#e581393f"] ;
183 -> 184 ;
185 [label="gini = 0.0\nsamples = 5\nvalue = [0.0, 24.751]\nclass = Ad/Tracker Traffic", fillcolor="#399de5ff"] ;
184 -> 185 ;
186 [label="gini = 0.0\nsamples = 59\nvalue = [32.814, 0.0]\nclass = Regular Traffic", fillcolor="#e58139ff"] ;
184 -> 186 ;
187 [label="ssl <= 0.0\ngini = 0.314\nsamples = 41\nvalue = [15.573, 64.353]\nclass = Ad/Tracker Traffic", fillcolor="#399de5c1"] ;
183 -> 187 ;
188 [label="gini = 0.0\nsamples = 3\nvalue = [1.669, 0.0]\nclass = Regular Traffic", fillcolor="#e58139ff"] ;
187 -> 188 ;
189 [label="ssl <= 0.0\ngini = 0.292\nsamples = 38\nvalue = [13.904, 64.353]\nclass = Ad/Tracker Traffic", fillcolor="#399de5c8"] ;
187 -> 189 ;
190 [label="dest_ip_freq <= 0.287\ngini = 0.277\nsamples = 36\nvalue = [12.792, 64.353]\nclass = Ad/Tracker Traffic", fillcolor="#399de5cc"] ;
189 -> 190 ;
191 [label="gini = 0.0\nsamples = 1\nvalue = [0.556, 0.0]\nclass = Regular Traffic", fillcolor="#e58139ff"] ;
190 -> 191 ;
192 [label="ssl <= 0.0\ngini = 0.268\nsamples = 35\nvalue = [12.236, 64.353]\nclass = Ad/Tracker Traffic", fillcolor="#399de5cf"] ;
190 -> 192 ;
193 [label="ssl <= 0.0\ngini = 0.32\nsamples = 29\nvalue = [11.124, 44.552]\nclass = Ad/Tracker Traffic", fillcolor="#399de5bf"] ;
192 -> 193 ;
194 [label="ssl <= 0.0\ngini = 0.289\nsamples = 26\nvalue = [9.455, 44.552]\nclass = Ad/Tracker Traffic", fillcolor="#399de5c9"] ;
193 -> 194 ;
195 [label="ssl <= 0.0\ngini = 0.182\nsamples = 12\nvalue = [3.337, 29.702]\nclass = Ad/Tracker Traffic", fillcolor="#399de5e2"] ;
194 -> 195 ;
196 [label="ssl <= 0.0\ngini = 0.247\nsamples = 10\nvalue = [3.337, 19.801]\nclass = Ad/Tracker Traffic", fillcolor="#399de5d4"] ;
195 -> 196 ;
197 [label="ip_dest_length <= 0.5\ngini = 0.182\nsamples = 8\nvalue = [2.225, 19.801]\nclass = Ad/Tracker Traffic", fillcolor="#399de5e2"] ;
196 -> 197 ;
198 [label="ssl <= 0.0\ngini = 0.182\nsamples = 4\nvalue = [1.112, 9.901]\nclass = Ad/Tracker Traffic", fillcolor="#399de5e2"] ;
197 -> 198 ;
199 [label="gini = 0.182\nsamples = 2\nvalue = [0.556, 4.95]\nclass = Ad/Tracker Traffic", fillcolor="#399de5e2"] ;
198 -> 199 ;
200 [label="gini = 0.182\nsamples = 2\nvalue = [0.556, 4.95]\nclass = Ad/Tracker Traffic", fillcolor="#399de5e2"] ;
198 -> 200 ;
201 [label="ssl <= 0.0\ngini = 0.182\nsamples = 4\nvalue = [1.112, 9.901]\nclass = Ad/Tracker Traffic", fillcolor="#399de5e2"] ;
197 -> 201 ;
202 [label="gini = 0.182\nsamples = 2\nvalue = [0.556, 4.95]\nclass = Ad/Tracker Traffic", fillcolor="#399de5e2"] ;
201 -> 202 ;
203 [label="gini = 0.182\nsamples = 2\nvalue = [0.556, 4.95]\nclass = Ad/Tracker Traffic", fillcolor="#399de5e2"] ;
201 -> 203 ;
204 [label="gini = -0.0\nsamples = 2\nvalue = [1.112, 0.0]\nclass = Regular Traffic", fillcolor="#e58139ff"] ;
196 -> 204 ;
205 [label="gini = 0.0\nsamples = 2\nvalue = [0.0, 9.901]\nclass = Ad/Tracker Traffic", fillcolor="#399de5ff"] ;
195 -> 205 ;
206 [label="ssl <= 0.0\ngini = 0.413\nsamples = 14\nvalue = [6.118, 14.851]\nclass = Ad/Tracker Traffic", fillcolor="#399de596"] ;
194 -> 206 ;
207 [label="gini = 0.0\nsamples = 4\nvalue = [2.225, 0.0]\nclass = Regular Traffic", fillcolor="#e58139ff"] ;
206 -> 207 ;
208 [label="ssl <= 0.0\ngini = 0.329\nsamples = 10\nvalue = [3.893, 14.851]\nclass = Ad/Tracker Traffic", fillcolor="#399de5bc"] ;
206 -> 208 ;
209 [label="ssl <= 0.0\ngini = 0.461\nsamples = 6\nvalue = [2.781, 4.95]\nclass = Ad/Tracker Traffic", fillcolor="#399de570"] ;
208 -> 209 ;
210 [label="gini = 0.0\nsamples = 1\nvalue = [0.0, 4.95]\nclass = Ad/Tracker Traffic", fillcolor="#399de5ff"] ;
209 -> 210 ;
211 [label="gini = -0.0\nsamples = 5\nvalue = [2.781, 0.0]\nclass = Regular Traffic", fillcolor="#e58139ff"] ;
209 -> 211 ;
212 [label="ip_dest_length <= 0.5\ngini = 0.182\nsamples = 4\nvalue = [1.112, 9.901]\nclass = Ad/Tracker Traffic", fillcolor="#399de5e2"] ;
208 -> 212 ;
213 [label="gini = 0.182\nsamples = 2\nvalue = [0.556, 4.95]\nclass = Ad/Tracker Traffic", fillcolor="#399de5e2"] ;
212 -> 213 ;
214 [label="gini = 0.182\nsamples = 2\nvalue = [0.556, 4.95]\nclass = Ad/Tracker Traffic", fillcolor="#399de5e2"] ;
212 -> 214 ;
215 [label="gini = 0.0\nsamples = 3\nvalue = [1.669, 0.0]\nclass = Regular Traffic", fillcolor="#e58139ff"] ;
193 -> 215 ;
216 [label="ssl <= 0.0\ngini = 0.101\nsamples = 6\nvalue = [1.112, 19.801]\nclass = Ad/Tracker Traffic", fillcolor="#399de5f1"] ;
192 -> 216 ;
217 [label="gini = 0.0\nsamples = 2\nvalue = [0.0, 9.901]\nclass = Ad/Tracker Traffic", fillcolor="#399de5ff"] ;
216 -> 217 ;
218 [label="ssl <= 0.0\ngini = 0.182\nsamples = 4\nvalue = [1.112, 9.901]\nclass = Ad/Tracker Traffic", fillcolor="#399de5e2"] ;
216 -> 218 ;
219 [label="gini = 0.0\nsamples = 2\nvalue = [1.112, 0.0]\nclass = Regular Traffic", fillcolor="#e58139ff"] ;
218 -> 219 ;
220 [label="gini = 0.0\nsamples = 2\nvalue = [0.0, 9.901]\nclass = Ad/Tracker Traffic", fillcolor="#399de5ff"] ;
218 -> 220 ;
221 [label="gini = -0.0\nsamples = 2\nvalue = [1.112, 0.0]\nclass = Regular Traffic", fillcolor="#e58139ff"] ;
189 -> 221 ;
222 [label="ip_dest_subdomain_length <= 0.0\ngini = 0.421\nsamples = 455\nvalue = [241.381, 103.956]\nclass = Regular Traffic", fillcolor="#e5813991"] ;
182 -> 222 ;
223 [label="ip_dest_subdomain_length <= 0.0\ngini = 0.307\nsamples = 352\nvalue = [190.769, 44.552]\nclass = Regular Traffic", fillcolor="#e58139c3"] ;
222 -> 223 ;
224 [label="ip_dest_subdomain_length <= 0.0\ngini = 0.47\nsamples = 141\nvalue = [73.415, 44.552]\nclass = Regular Traffic", fillcolor="#e5813964"] ;
223 -> 224 ;
225 [label="gini = 0.0\nsamples = 127\nvalue = [70.634, 0.0]\nclass = Regular Traffic", fillcolor="#e58139ff"] ;
224 -> 225 ;
226 [label="dest_ip_freq <= 0.287\ngini = 0.111\nsamples = 14\nvalue = [2.781, 44.552]\nclass = Ad/Tracker Traffic", fillcolor="#399de5ef"] ;
224 -> 226 ;
227 [label="gini = 0.0\nsamples = 5\nvalue = [2.781, 0.0]\nclass = Regular Traffic", fillcolor="#e58139ff"] ;
226 -> 227 ;
228 [label="gini = 0.0\nsamples = 9\nvalue = [0.0, 44.552]\nclass = Ad/Tracker Traffic", fillcolor="#399de5ff"] ;
226 -> 228 ;
229 [label="gini = 0.0\nsamples = 211\nvalue = [117.353, 0.0]\nclass = Regular Traffic", fillcolor="#e58139ff"] ;
223 -> 229 ;
230 [label="ip_dest_subdomain_length <= 0.0\ngini = 0.497\nsamples = 103\nvalue = [50.612, 59.403]\nclass = Ad/Tracker Traffic", fillcolor="#399de526"] ;
222 -> 230 ;
231 [label="ssl <= 0.0\ngini = 0.07\nsamples = 16\nvalue = [2.225, 59.403]\nclass = Ad/Tracker Traffic", fillcolor="#399de5f5"] ;
230 -> 231 ;
232 [label="ssl <= 0.0\ngini = 0.053\nsamples = 15\nvalue = [1.669, 59.403]\nclass = Ad/Tracker Traffic", fillcolor="#399de5f8"] ;
231 -> 232 ;
233 [label="gini = 0.0\nsamples = 8\nvalue = [0.0, 39.602]\nclass = Ad/Tracker Traffic", fillcolor="#399de5ff"] ;
232 -> 233 ;
234 [label="ssl <= 0.0\ngini = 0.143\nsamples = 7\nvalue = [1.669, 19.801]\nclass = Ad/Tracker Traffic", fillcolor="#399de5ea"] ;
232 -> 234 ;
235 [label="ssl <= 0.0\ngini = 0.247\nsamples = 5\nvalue = [1.669, 9.901]\nclass = Ad/Tracker Traffic", fillcolor="#399de5d4"] ;
234 -> 235 ;
236 [label="ip_dest_length <= 0.5\ngini = 0.182\nsamples = 4\nvalue = [1.112, 9.901]\nclass = Ad/Tracker Traffic", fillcolor="#399de5e2"] ;
235 -> 236 ;
237 [label="gini = 0.182\nsamples = 2\nvalue = [0.556, 4.95]\nclass = Ad/Tracker Traffic", fillcolor="#399de5e2"] ;
236 -> 237 ;
238 [label="gini = 0.182\nsamples = 2\nvalue = [0.556, 4.95]\nclass = Ad/Tracker Traffic", fillcolor="#399de5e2"] ;
236 -> 238 ;
239 [label="gini = 0.0\nsamples = 1\nvalue = [0.556, 0.0]\nclass = Regular Traffic", fillcolor="#e58139ff"] ;
235 -> 239 ;
240 [label="gini = 0.0\nsamples = 2\nvalue = [0.0, 9.901]\nclass = Ad/Tracker Traffic", fillcolor="#399de5ff"] ;
234 -> 240 ;
241 [label="gini = 0.0\nsamples = 1\nvalue = [0.556, 0.0]\nclass = Regular Traffic", fillcolor="#e58139ff"] ;
231 -> 241 ;
242 [label="gini = -0.0\nsamples = 87\nvalue = [48.387, 0.0]\nclass = Regular Traffic", fillcolor="#e58139ff"] ;
230 -> 242 ;
243 [label="ip_dest_subdomain_length <= 0.0\ngini = 0.3\nsamples = 21\nvalue = [7.786, 34.652]\nclass = Ad/Tracker Traffic", fillcolor="#399de5c6"] ;
15 -> 243 ;
244 [label="ssl <= 0.0\ngini = 0.182\nsamples = 14\nvalue = [3.893, 34.652]\nclass = Ad/Tracker Traffic", fillcolor="#399de5e2"] ;
243 -> 244 ;
245 [label="gini = 0.0\nsamples = 3\nvalue = [1.669, 0.0]\nclass = Regular Traffic", fillcolor="#e58139ff"] ;
244 -> 245 ;
246 [label="ip_dest_subdomain_length <= 0.0\ngini = 0.113\nsamples = 11\nvalue = [2.225, 34.652]\nclass = Ad/Tracker Traffic", fillcolor="#399de5ef"] ;
244 -> 246 ;
247 [label="gini = 0.0\nsamples = 1\nvalue = [0.556, 0.0]\nclass = Regular Traffic", fillcolor="#e58139ff"] ;
246 -> 247 ;
248 [label="ip_dest_subdomain_length <= 0.0\ngini = 0.088\nsamples = 10\nvalue = [1.669, 34.652]\nclass = Ad/Tracker Traffic", fillcolor="#399de5f3"] ;
246 -> 248 ;
249 [label="gini = 0.0\nsamples = 5\nvalue = [0.0, 24.751]\nclass = Ad/Tracker Traffic", fillcolor="#399de5ff"] ;
248 -> 249 ;
250 [label="ssl <= 0.0\ngini = 0.247\nsamples = 5\nvalue = [1.669, 9.901]\nclass = Ad/Tracker Traffic", fillcolor="#399de5d4"] ;
248 -> 250 ;
251 [label="gini = 0.0\nsamples = 3\nvalue = [1.669, 0.0]\nclass = Regular Traffic", fillcolor="#e58139ff"] ;
250 -> 251 ;
252 [label="gini = 0.0\nsamples = 2\nvalue = [0.0, 9.901]\nclass = Ad/Tracker Traffic", fillcolor="#399de5ff"] ;
250 -> 252 ;
253 [label="gini = 0.0\nsamples = 7\nvalue = [3.893, 0.0]\nclass = Regular Traffic", fillcolor="#e58139ff"] ;
243 -> 253 ;
254 [label="ssl <= 0.0\ngini = 0.046\nsamples = 17\nvalue = [1.669, 69.304]\nclass = Ad/Tracker Traffic", fillcolor="#399de5f9"] ;
8 -> 254 ;
255 [label="ssl <= 0.0\ngini = 0.022\nsamples = 11\nvalue = [0.556, 49.503]\nclass = Ad/Tracker Traffic", fillcolor="#399de5fc"] ;
254 -> 255 ;
256 [label="ssl <= 0.0\ngini = 0.07\nsamples = 4\nvalue = [0.556, 14.851]\nclass = Ad/Tracker Traffic", fillcolor="#399de5f5"] ;
255 -> 256 ;
257 [label="gini = 0.0\nsamples = 2\nvalue = [0.0, 9.901]\nclass = Ad/Tracker Traffic", fillcolor="#399de5ff"] ;
256 -> 257 ;
258 [label="gini = 0.182\nsamples = 2\nvalue = [0.556, 4.95]\nclass = Ad/Tracker Traffic", fillcolor="#399de5e2"] ;
256 -> 258 ;
259 [label="gini = 0.0\nsamples = 7\nvalue = [0.0, 34.652]\nclass = Ad/Tracker Traffic", fillcolor="#399de5ff"] ;
255 -> 259 ;
260 [label="ssl <= 0.0\ngini = 0.101\nsamples = 6\nvalue = [1.112, 19.801]\nclass = Ad/Tracker Traffic", fillcolor="#399de5f1"] ;
254 -> 260 ;
261 [label="gini = 0.0\nsamples = 2\nvalue = [1.112, 0.0]\nclass = Regular Traffic", fillcolor="#e58139ff"] ;
260 -> 261 ;
262 [label="gini = -0.0\nsamples = 4\nvalue = [0.0, 19.801]\nclass = Ad/Tracker Traffic", fillcolor="#399de5ff"] ;
260 -> 262 ;
263 [label="gini = 0.0\nsamples = 1438\nvalue = [799.782, 0.0]\nclass = Regular Traffic", fillcolor="#e58139ff"] ;
7 -> 263 ;
264 [label="ip_dest_subdomain_length <= 0.0\ngini = 0.414\nsamples = 1356\nvalue = [592.884, 1435.578]\nclass = Ad/Tracker Traffic", fillcolor="#399de596"] ;
6 -> 264 ;
265 [label="ssl <= 0.0\ngini = 0.051\nsamples = 93\nvalue = [10.011, 371.27]\nclass = Ad/Tracker Traffic", fillcolor="#399de5f8"] ;
264 -> 265 ;
266 [label="gini = 0.0\nsamples = 1\nvalue = [0.556, 0.0]\nclass = Regular Traffic", fillcolor="#e58139ff"] ;
265 -> 266 ;
267 [label="ip_dest_subdomain_length <= 0.0\ngini = 0.048\nsamples = 92\nvalue = [9.455, 371.27]\nclass = Ad/Tracker Traffic", fillcolor="#399de5f9"] ;
265 -> 267 ;
268 [label="gini = 0.0\nsamples = 46\nvalue = [0.0, 227.712]\nclass = Ad/Tracker Traffic", fillcolor="#399de5ff"] ;
267 -> 268 ;
269 [label="ip_dest_subdomain_length <= 0.0\ngini = 0.116\nsamples = 46\nvalue = [9.455, 143.558]\nclass = Ad/Tracker Traffic", fillcolor="#399de5ee"] ;
267 -> 269 ;
270 [label="gini = 0.0\nsamples = 17\nvalue = [9.455, 0.0]\nclass = Regular Traffic", fillcolor="#e58139ff"] ;
269 -> 270 ;
271 [label="gini = 0.0\nsamples = 29\nvalue = [0.0, 143.558]\nclass = Ad/Tracker Traffic", fillcolor="#399de5ff"] ;
269 -> 271 ;
272 [label="ip_dest_subdomain_length <= 0.0\ngini = 0.457\nsamples = 1263\nvalue = [582.873, 1064.308]\nclass = Ad/Tracker Traffic", fillcolor="#399de573"] ;
264 -> 272 ;
273 [label="gini = 0.0\nsamples = 489\nvalue = [271.97, 0.0]\nclass = Regular Traffic", fillcolor="#e58139ff"] ;
272 -> 273 ;
274 [label="ip_dest_subdomain_length <= 0.0\ngini = 0.35\nsamples = 774\nvalue = [310.903, 1064.308]\nclass = Ad/Tracker Traffic", fillcolor="#399de5b5"] ;
272 -> 274 ;
275 [label="ip_dest_subdomain_length <= 0.0\ngini = 0.252\nsamples = 451\nvalue = [152.392, 876.197]\nclass = Ad/Tracker Traffic", fillcolor="#399de5d3"] ;
274 -> 275 ;
276 [label="ip_dest_subdomain_length <= 0.0\ngini = 0.368\nsamples = 370\nvalue = [152.392, 475.226]\nclass = Ad/Tracker Traffic", fillcolor="#399de5ad"] ;
275 -> 276 ;
277 [label="ip_dest_subdomain_length <= 0.0\ngini = 0.097\nsamples = 99\nvalue = [17.798, 331.668]\nclass = Ad/Tracker Traffic", fillcolor="#399de5f1"] ;
276 -> 277 ;
278 [label="ip_dest_subdomain_length <= 0.0\ngini = 0.177\nsamples = 65\nvalue = [17.798, 163.359]\nclass = Ad/Tracker Traffic", fillcolor="#399de5e3"] ;
277 -> 278 ;
279 [label="gini = -0.0\nsamples = 33\nvalue = [0.0, 163.359]\nclass = Ad/Tracker Traffic", fillcolor="#399de5ff"] ;
278 -> 279 ;
280 [label="gini = 0.0\nsamples = 32\nvalue = [17.798, 0.0]\nclass = Regular Traffic", fillcolor="#e58139ff"] ;
278 -> 280 ;
281 [label="gini = 0.0\nsamples = 34\nvalue = [0.0, 168.309]\nclass = Ad/Tracker Traffic", fillcolor="#399de5ff"] ;
277 -> 281 ;
282 [label="ip_dest_subdomain_length <= 0.0\ngini = 0.499\nsamples = 271\nvalue = [134.595, 143.558]\nclass = Ad/Tracker Traffic", fillcolor="#399de510"] ;
276 -> 282 ;
283 [label="gini = -0.0\nsamples = 146\nvalue = [81.202, 0.0]\nclass = Regular Traffic", fillcolor="#e58139ff"] ;
282 -> 283 ;
284 [label="dest_ip_freq <= 0.287\ngini = 0.395\nsamples = 125\nvalue = [53.393, 143.558]\nclass = Ad/Tracker Traffic", fillcolor="#399de5a0"] ;
282 -> 284 ;
285 [label="ip_dest_subdomain_length <= 0.0\ngini = 0.161\nsamples = 54\nvalue = [13.904, 143.558]\nclass = Ad/Tracker Traffic", fillcolor="#399de5e6"] ;
284 -> 285 ;
286 [label="gini = -0.0\nsamples = 29\nvalue = [0.0, 143.558]\nclass = Ad/Tracker Traffic", fillcolor="#399de5ff"] ;
285 -> 286 ;
287 [label="gini = 0.0\nsamples = 25\nvalue = [13.904, 0.0]\nclass = Regular Traffic", fillcolor="#e58139ff"] ;
285 -> 287 ;
288 [label="gini = 0.0\nsamples = 71\nvalue = [39.489, 0.0]\nclass = Regular Traffic", fillcolor="#e58139ff"] ;
284 -> 288 ;
289 [label="gini = 0.0\nsamples = 81\nvalue = [0.0, 400.972]\nclass = Ad/Tracker Traffic", fillcolor="#399de5ff"] ;
275 -> 289 ;
290 [label="ip_dest_subdomain_length <= 0.0\ngini = 0.496\nsamples = 323\nvalue = [158.51, 188.11]\nclass = Ad/Tracker Traffic", fillcolor="#399de528"] ;
274 -> 290 ;
291 [label="gini = -0.0\nsamples = 285\nvalue = [158.51, 0.0]\nclass = Regular Traffic", fillcolor="#e58139ff"] ;
290 -> 291 ;
292 [label="gini = 0.0\nsamples = 38\nvalue = [0.0, 188.11]\nclass = Ad/Tracker Traffic", fillcolor="#399de5ff"] ;
290 -> 292 ;
293 [label="ip_dest_subdomain_length <= 0.001\ngini = 0.225\nsamples = 2925\nvalue = [1600.119, 237.613]\nclass = Regular Traffic", fillcolor="#e58139d9"] ;
5 -> 293 ;
294 [label="src_ip_freq <= 0.0\ngini = 0.007\nsamples = 2381\nvalue = [1323.7, 4.95]\nclass = Regular Traffic", fillcolor="#e58139fe"] ;
293 -> 294 ;
295 [label="src_ip_freq <= 0.0\ngini = 0.24\nsamples = 56\nvalue = [30.59, 4.95]\nclass = Regular Traffic", fillcolor="#e58139d6"] ;
294 -> 295 ;
296 [label="gini = 0.0\nsamples = 55\nvalue = [30.59, 0.0]\nclass = Regular Traffic", fillcolor="#e58139ff"] ;
295 -> 296 ;
297 [label="gini = -0.0\nsamples = 1\nvalue = [0.0, 4.95]\nclass = Ad/Tracker Traffic", fillcolor="#399de5ff"] ;
295 -> 297 ;
298 [label="gini = -0.0\nsamples = 2325\nvalue = [1293.11, 0.0]\nclass = Regular Traffic", fillcolor="#e58139ff"] ;
294 -> 298 ;
299 [label="ip_dest_subdomain_length <= 0.001\ngini = 0.496\nsamples = 544\nvalue = [276.42, 232.663]\nclass = Regular Traffic", fillcolor="#e5813928"] ;
293 -> 299 ;
300 [label="dest_ip_freq <= 0.287\ngini = 0.302\nsamples = 142\nvalue = [52.837, 232.663]\nclass = Ad/Tracker Traffic", fillcolor="#399de5c5"] ;
299 -> 300 ;
301 [label="gini = 0.0\nsamples = 34\nvalue = [0.0, 168.309]\nclass = Ad/Tracker Traffic", fillcolor="#399de5ff"] ;
300 -> 301 ;
302 [label="ssl <= 0.0\ngini = 0.495\nsamples = 108\nvalue = [52.837, 64.353]\nclass = Ad/Tracker Traffic", fillcolor="#399de52e"] ;
300 -> 302 ;
303 [label="ssl <= 0.0\ngini = 0.38\nsamples = 27\nvalue = [14.461, 4.95]\nclass = Regular Traffic", fillcolor="#e58139a8"] ;
302 -> 303 ;
304 [label="ssl <= 0.0\ngini = 0.428\nsamples = 5\nvalue = [2.225, 4.95]\nclass = Ad/Tracker Traffic", fillcolor="#399de58c"] ;
303 -> 304 ;
305 [label="gini = 0.0\nsamples = 4\nvalue = [2.225, 0.0]\nclass = Regular Traffic", fillcolor="#e58139ff"] ;
304 -> 305 ;
306 [label="gini = 0.0\nsamples = 1\nvalue = [0.0, 4.95]\nclass = Ad/Tracker Traffic", fillcolor="#399de5ff"] ;
304 -> 306 ;
307 [label="gini = -0.0\nsamples = 22\nvalue = [12.236, 0.0]\nclass = Regular Traffic", fillcolor="#e58139ff"] ;
303 -> 307 ;
308 [label="ssl <= 0.0\ngini = 0.477\nsamples = 81\nvalue = [38.376, 59.403]\nclass = Ad/Tracker Traffic", fillcolor="#399de55a"] ;
302 -> 308 ;
309 [label="ssl <= 0.0\ngini = 0.418\nsamples = 43\nvalue = [18.91, 44.552]\nclass = Ad/Tracker Traffic", fillcolor="#399de593"] ;
308 -> 309 ;
310 [label="ssl <= 0.0\ngini = 0.457\nsamples = 41\nvalue = [18.91, 34.652]\nclass = Ad/Tracker Traffic", fillcolor="#399de574"] ;
309 -> 310 ;
311 [label="ssl <= 0.0\ngini = 0.361\nsamples = 15\nvalue = [6.118, 19.801]\nclass = Ad/Tracker Traffic", fillcolor="#399de5b0"] ;
310 -> 311 ;
312 [label="ip_dest_length <= 0.5\ngini = 0.446\nsamples = 11\nvalue = [5.006, 9.901]\nclass = Ad/Tracker Traffic", fillcolor="#399de57e"] ;
311 -> 312 ;
313 [label="ssl <= 0.0\ngini = 0.342\nsamples = 7\nvalue = [2.781, 9.901]\nclass = Ad/Tracker Traffic", fillcolor="#399de5b7"] ;
312 -> 313 ;
314 [label="ssl <= 0.0\ngini = 0.247\nsamples = 5\nvalue = [1.669, 9.901]\nclass = Ad/Tracker Traffic", fillcolor="#399de5d4"] ;
313 -> 314 ;
315 [label="ssl <= 0.0\ngini = 0.377\nsamples = 4\nvalue = [1.669, 4.95]\nclass = Ad/Tracker Traffic", fillcolor="#399de5a9"] ;
314 -> 315 ;
316 [label="gini = 0.182\nsamples = 2\nvalue = [0.556, 4.95]\nclass = Ad/Tracker Traffic", fillcolor="#399de5e2"] ;
315 -> 316 ;
317 [label="gini = -0.0\nsamples = 2\nvalue = [1.112, 0.0]\nclass = Regular Traffic", fillcolor="#e58139ff"] ;
315 -> 317 ;
318 [label="gini = 0.0\nsamples = 1\nvalue = [0.0, 4.95]\nclass = Ad/Tracker Traffic", fillcolor="#399de5ff"] ;
314 -> 318 ;
319 [label="gini = 0.0\nsamples = 2\nvalue = [1.112, 0.0]\nclass = Regular Traffic", fillcolor="#e58139ff"] ;
313 -> 319 ;
320 [label="gini = 0.0\nsamples = 4\nvalue = [2.225, 0.0]\nclass = Regular Traffic", fillcolor="#e58139ff"] ;
312 -> 320 ;
321 [label="ip_dest_length <= 0.5\ngini = 0.182\nsamples = 4\nvalue = [1.112, 9.901]\nclass = Ad/Tracker Traffic", fillcolor="#399de5e2"] ;
311 -> 321 ;
322 [label="gini = 0.182\nsamples = 2\nvalue = [0.556, 4.95]\nclass = Ad/Tracker Traffic", fillcolor="#399de5e2"] ;
321 -> 322 ;
323 [label="gini = 0.182\nsamples = 2\nvalue = [0.556, 4.95]\nclass = Ad/Tracker Traffic", fillcolor="#399de5e2"] ;
321 -> 323 ;
324 [label="ssl <= 0.0\ngini = 0.497\nsamples = 26\nvalue = [12.792, 14.851]\nclass = Ad/Tracker Traffic", fillcolor="#399de523"] ;
310 -> 324 ;
325 [label="gini = 0.0\nsamples = 12\nvalue = [6.674, 0.0]\nclass = Regular Traffic", fillcolor="#e58139ff"] ;
324 -> 325 ;
326 [label="ssl <= 0.0\ngini = 0.413\nsamples = 14\nvalue = [6.118, 14.851]\nclass = Ad/Tracker Traffic", fillcolor="#399de596"] ;
324 -> 326 ;
327 [label="gini = 0.0\nsamples = 2\nvalue = [0.0, 9.901]\nclass = Ad/Tracker Traffic", fillcolor="#399de5ff"] ;
326 -> 327 ;
328 [label="ssl <= 0.0\ngini = 0.494\nsamples = 12\nvalue = [6.118, 4.95]\nclass = Regular Traffic", fillcolor="#e5813931"] ;
326 -> 328 ;
329 [label="gini = -0.0\nsamples = 8\nvalue = [4.449, 0.0]\nclass = Regular Traffic", fillcolor="#e58139ff"] ;
328 -> 329 ;
330 [label="ssl <= 0.0\ngini = 0.377\nsamples = 4\nvalue = [1.669, 4.95]\nclass = Ad/Tracker Traffic", fillcolor="#399de5a9"] ;
328 -> 330 ;
331 [label="ip_dest_length <= 0.5\ngini = 0.3\nsamples = 3\nvalue = [1.112, 4.95]\nclass = Ad/Tracker Traffic", fillcolor="#399de5c6"] ;
330 -> 331 ;
332 [label="gini = 0.182\nsamples = 2\nvalue = [0.556, 4.95]\nclass = Ad/Tracker Traffic", fillcolor="#399de5e2"] ;
331 -> 332 ;
333 [label="gini = -0.0\nsamples = 1\nvalue = [0.556, 0.0]\nclass = Regular Traffic", fillcolor="#e58139ff"] ;
331 -> 333 ;
334 [label="gini = -0.0\nsamples = 1\nvalue = [0.556, 0.0]\nclass = Regular Traffic", fillcolor="#e58139ff"] ;
330 -> 334 ;
335 [label="gini = 0.0\nsamples = 2\nvalue = [0.0, 9.901]\nclass = Ad/Tracker Traffic", fillcolor="#399de5ff"] ;
309 -> 335 ;
336 [label="ssl <= 0.0\ngini = 0.491\nsamples = 38\nvalue = [19.466, 14.851]\nclass = Regular Traffic", fillcolor="#e581393c"] ;
308 -> 336 ;
337 [label="ssl <= 0.0\ngini = 0.366\nsamples = 29\nvalue = [15.573, 4.95]\nclass = Regular Traffic", fillcolor="#e58139ae"] ;
336 -> 337 ;
338 [label="ssl <= 0.0\ngini = 0.498\nsamples = 11\nvalue = [5.562, 4.95]\nclass = Regular Traffic", fillcolor="#e581391c"] ;
337 -> 338 ;
339 [label="gini = 0.0\nsamples = 10\nvalue = [5.562, 0.0]\nclass = Regular Traffic", fillcolor="#e58139ff"] ;
338 -> 339 ;
340 [label="gini = 0.0\nsamples = 1\nvalue = [0.0, 4.95]\nclass = Ad/Tracker Traffic", fillcolor="#399de5ff"] ;
338 -> 340 ;
341 [label="gini = -0.0\nsamples = 18\nvalue = [10.011, 0.0]\nclass = Regular Traffic", fillcolor="#e58139ff"] ;
337 -> 341 ;
342 [label="ssl <= 0.0\ngini = 0.405\nsamples = 9\nvalue = [3.893, 9.901]\nclass = Ad/Tracker Traffic", fillcolor="#399de59b"] ;
336 -> 342 ;
343 [label="gini = 0.0\nsamples = 2\nvalue = [0.0, 9.901]\nclass = Ad/Tracker Traffic", fillcolor="#399de5ff"] ;
342 -> 343 ;
344 [label="gini = 0.0\nsamples = 7\nvalue = [3.893, 0.0]\nclass = Regular Traffic", fillcolor="#e58139ff"] ;
342 -> 344 ;
345 [label="gini = -0.0\nsamples = 402\nvalue = [223.583, 0.0]\nclass = Regular Traffic", fillcolor="#e58139ff"] ;
299 -> 345 ;
346 [label="ip_dest_subdomain_length <= 0.0\ngini = 0.361\nsamples = 8696\nvalue = [3549.518, 11454.92]\nclass = Ad/Tracker Traffic", fillcolor="#399de5b0"] ;
4 -> 346 ;
347 [label="dest_ip_freq <= 0.031\ngini = 0.245\nsamples = 2940\nvalue = [977.758, 5851.217]\nclass = Ad/Tracker Traffic", fillcolor="#399de5d4"] ;
346 -> 347 ;
348 [label="dest_ip_freq <= 0.0\ngini = 0.47\nsamples = 110\nvalue = [57.286, 34.652]\nclass = Regular Traffic", fillcolor="#e5813965"] ;
347 -> 348 ;
349 [label="gini = 0.0\nsamples = 7\nvalue = [0.0, 34.652]\nclass = Ad/Tracker Traffic", fillcolor="#399de5ff"] ;
348 -> 349 ;
350 [label="gini = -0.0\nsamples = 103\nvalue = [57.286, 0.0]\nclass = Regular Traffic", fillcolor="#e58139ff"] ;
348 -> 350 ;
351 [label="src_ip_freq <= 0.289\ngini = 0.236\nsamples = 2830\nvalue = [920.472, 5816.565]\nclass = Ad/Tracker Traffic", fillcolor="#399de5d7"] ;
347 -> 351 ;
352 [label="src_ip_freq <= 0.006\ngini = 0.491\nsamples = 156\nvalue = [75.64, 99.005]\nclass = Ad/Tracker Traffic", fillcolor="#399de53c"] ;
351 -> 352 ;
353 [label="ip_dest_subdomain_length <= 0.0\ngini = 0.361\nsamples = 60\nvalue = [24.472, 79.204]\nclass = Ad/Tracker Traffic", fillcolor="#399de5b0"] ;
352 -> 353 ;
354 [label="gini = 0.0\nsamples = 26\nvalue = [14.461, 0.0]\nclass = Regular Traffic", fillcolor="#e58139ff"] ;
353 -> 354 ;
355 [label="ip_dest_subdomain_length <= 0.0\ngini = 0.199\nsamples = 34\nvalue = [10.011, 79.204]\nclass = Ad/Tracker Traffic", fillcolor="#399de5df"] ;
353 -> 355 ;
356 [label="ip_src_length <= 33.0\ngini = 0.172\nsamples = 31\nvalue = [8.343, 79.204]\nclass = Ad/Tracker Traffic", fillcolor="#399de5e4"] ;
355 -> 356 ;
357 [label="ip_dest_subdomain_length <= 0.0\ngini = 0.143\nsamples = 28\nvalue = [6.674, 79.204]\nclass = Ad/Tracker Traffic", fillcolor="#399de5ea"] ;
356 -> 357 ;
358 [label="ip_dest_subdomain_length <= 0.0\ngini = 0.342\nsamples = 7\nvalue = [2.781, 9.901]\nclass = Ad/Tracker Traffic", fillcolor="#399de5b7"] ;
357 -> 358 ;
359 [label="gini = 0.0\nsamples = 2\nvalue = [0.0, 9.901]\nclass = Ad/Tracker Traffic", fillcolor="#399de5ff"] ;
358 -> 359 ;
360 [label="gini = 0.0\nsamples = 5\nvalue = [2.781, 0.0]\nclass = Regular Traffic", fillcolor="#e58139ff"] ;
358 -> 360 ;
361 [label="ssl <= 0.0\ngini = 0.101\nsamples = 21\nvalue = [3.893, 69.304]\nclass = Ad/Tracker Traffic", fillcolor="#399de5f1"] ;
357 -> 361 ;
362 [label="ip_src_length <= 25.5\ngini = 0.247\nsamples = 5\nvalue = [1.669, 9.901]\nclass = Ad/Tracker Traffic", fillcolor="#399de5d4"] ;
361 -> 362 ;
363 [label="ssl <= 0.0\ngini = 0.182\nsamples = 4\nvalue = [1.112, 9.901]\nclass = Ad/Tracker Traffic", fillcolor="#399de5e2"] ;
362 -> 363 ;
364 [label="src_ip_freq <= 0.0\ngini = 0.101\nsamples = 3\nvalue = [0.556, 9.901]\nclass = Ad/Tracker Traffic", fillcolor="#399de5f1"] ;
363 -> 364 ;
365 [label="gini = 0.0\nsamples = 1\nvalue = [0.0, 4.95]\nclass = Ad/Tracker Traffic", fillcolor="#399de5ff"] ;
364 -> 365 ;
366 [label="ip_src_length <= 24.0\ngini = 0.182\nsamples = 2\nvalue = [0.556, 4.95]\nclass = Ad/Tracker Traffic", fillcolor="#399de5e2"] ;
364 -> 366 ;
367 [label="gini = 0.0\nsamples = 1\nvalue = [0.0, 4.95]\nclass = Ad/Tracker Traffic", fillcolor="#399de5ff"] ;
366 -> 367 ;
368 [label="gini = -0.0\nsamples = 1\nvalue = [0.556, 0.0]\nclass = Regular Traffic", fillcolor="#e58139ff"] ;
366 -> 368 ;
369 [label="gini = 0.0\nsamples = 1\nvalue = [0.556, 0.0]\nclass = Regular Traffic", fillcolor="#e58139ff"] ;
363 -> 369 ;
370 [label="gini = 0.0\nsamples = 1\nvalue = [0.556, 0.0]\nclass = Regular Traffic", fillcolor="#e58139ff"] ;
362 -> 370 ;
371 [label="ip_src_length <= 26.5\ngini = 0.07\nsamples = 16\nvalue = [2.225, 59.403]\nclass = Ad/Tracker Traffic", fillcolor="#399de5f5"] ;
361 -> 371 ;
372 [label="ip_src_length <= 25.5\ngini = 0.113\nsamples = 11\nvalue = [2.225, 34.652]\nclass = Ad/Tracker Traffic", fillcolor="#399de5ef"] ;
371 -> 372 ;
373 [label="ip_src_length <= 23.5\ngini = 0.088\nsamples = 10\nvalue = [1.669, 34.652]\nclass = Ad/Tracker Traffic", fillcolor="#399de5f3"] ;
372 -> 373 ;
374 [label="gini = 0.0\nsamples = 3\nvalue = [0.0, 14.851]\nclass = Ad/Tracker Traffic", fillcolor="#399de5ff"] ;
373 -> 374 ;
375 [label="src_ip_freq <= 0.0\ngini = 0.143\nsamples = 7\nvalue = [1.669, 19.801]\nclass = Ad/Tracker Traffic", fillcolor="#399de5ea"] ;
373 -> 375 ;
376 [label="ssl <= 0.0\ngini = 0.053\nsamples = 5\nvalue = [0.556, 19.801]\nclass = Ad/Tracker Traffic", fillcolor="#399de5f8"] ;
375 -> 376 ;
377 [label="ip_src_length <= 24.5\ngini = 0.182\nsamples = 2\nvalue = [0.556, 4.95]\nclass = Ad/Tracker Traffic", fillcolor="#399de5e2"] ;
376 -> 377 ;
378 [label="gini = 0.0\nsamples = 1\nvalue = [0.0, 4.95]\nclass = Ad/Tracker Traffic", fillcolor="#399de5ff"] ;
377 -> 378 ;
379 [label="gini = -0.0\nsamples = 1\nvalue = [0.556, 0.0]\nclass = Regular Traffic", fillcolor="#e58139ff"] ;
377 -> 379 ;
380 [label="gini = -0.0\nsamples = 3\nvalue = [0.0, 14.851]\nclass = Ad/Tracker Traffic", fillcolor="#399de5ff"] ;
376 -> 380 ;
381 [label="gini = -0.0\nsamples = 2\nvalue = [1.112, 0.0]\nclass = Regular Traffic", fillcolor="#e58139ff"] ;
375 -> 381 ;
382 [label="gini = 0.0\nsamples = 1\nvalue = [0.556, 0.0]\nclass = Regular Traffic", fillcolor="#e58139ff"] ;
372 -> 382 ;
383 [label="gini = 0.0\nsamples = 5\nvalue = [0.0, 24.751]\nclass = Ad/Tracker Traffic", fillcolor="#399de5ff"] ;
371 -> 383 ;
384 [label="gini = -0.0\nsamples = 3\nvalue = [1.669, 0.0]\nclass = Regular Traffic", fillcolor="#e58139ff"] ;
356 -> 384 ;
385 [label="gini = -0.0\nsamples = 3\nvalue = [1.669, 0.0]\nclass = Regular Traffic", fillcolor="#e58139ff"] ;
355 -> 385 ;
386 [label="ip_dest_subdomain_length <= 0.0\ngini = 0.402\nsamples = 96\nvalue = [51.168, 19.801]\nclass = Regular Traffic", fillcolor="#e581399c"] ;
352 -> 386 ;
387 [label="ssl <= 0.0\ngini = 0.182\nsamples = 8\nvalue = [2.225, 19.801]\nclass = Ad/Tracker Traffic", fillcolor="#399de5e2"] ;
386 -> 387 ;
388 [label="gini = 0.0\nsamples = 2\nvalue = [1.112, 0.0]\nclass = Regular Traffic", fillcolor="#e58139ff"] ;
387 -> 388 ;
389 [label="ip_src_length <= 29.0\ngini = 0.101\nsamples = 6\nvalue = [1.112, 19.801]\nclass = Ad/Tracker Traffic", fillcolor="#399de5f1"] ;
387 -> 389 ;
390 [label="dest_ip_freq <= 0.287\ngini = 0.053\nsamples = 5\nvalue = [0.556, 19.801]\nclass = Ad/Tracker Traffic", fillcolor="#399de5f8"] ;
389 -> 390 ;
391 [label="gini = 0.0\nsamples = 1\nvalue = [0.556, 0.0]\nclass = Regular Traffic", fillcolor="#e58139ff"] ;
390 -> 391 ;
392 [label="gini = 0.0\nsamples = 4\nvalue = [0.0, 19.801]\nclass = Ad/Tracker Traffic", fillcolor="#399de5ff"] ;
390 -> 392 ;
393 [label="gini = -0.0\nsamples = 1\nvalue = [0.556, 0.0]\nclass = Regular Traffic", fillcolor="#e58139ff"] ;
389 -> 393 ;
394 [label="gini = -0.0\nsamples = 88\nvalue = [48.944, 0.0]\nclass = Regular Traffic", fillcolor="#e58139ff"] ;
386 -> 394 ;
395 [label="ip_dest_subdomain_length <= 0.0\ngini = 0.224\nsamples = 2674\nvalue = [844.832, 5717.559]\nclass = Ad/Tracker Traffic", fillcolor="#399de5d9"] ;
351 -> 395 ;
396 [label="ip_src_length <= 32.5\ngini = 0.334\nsamples = 427\nvalue = [167.409, 623.734]\nclass = Ad/Tracker Traffic", fillcolor="#399de5bb"] ;
395 -> 396 ;
397 [label="ip_src_length <= 28.5\ngini = 0.322\nsamples = 410\nvalue = [157.954, 623.734]\nclass = Ad/Tracker Traffic", fillcolor="#399de5be"] ;
396 -> 397 ;
398 [label="ip_dest_subdomain_length <= 0.0\ngini = 0.383\nsamples = 361\nvalue = [151.836, 435.624]\nclass = Ad/Tracker Traffic", fillcolor="#399de5a6"] ;
397 -> 398 ;
399 [label="ip_dest_subdomain_length <= 0.0\ngini = 0.347\nsamples = 32\nvalue = [17.241, 4.95]\nclass = Regular Traffic", fillcolor="#e58139b6"] ;
398 -> 399 ;
400 [label="ip_src_length <= 24.5\ngini = 0.493\nsamples = 8\nvalue = [3.893, 4.95]\nclass = Ad/Tracker Traffic", fillcolor="#399de536"] ;
399 -> 400 ;
401 [label="dest_ip_freq <= 0.287\ngini = 0.182\nsamples = 2\nvalue = [0.556, 4.95]\nclass = Ad/Tracker Traffic", fillcolor="#399de5e2"] ;
400 -> 401 ;
402 [label="gini = 0.0\nsamples = 1\nvalue = [0.0, 4.95]\nclass = Ad/Tracker Traffic", fillcolor="#399de5ff"] ;
401 -> 402 ;
403 [label="gini = -0.0\nsamples = 1\nvalue = [0.556, 0.0]\nclass = Regular Traffic", fillcolor="#e58139ff"] ;
401 -> 403 ;
404 [label="gini = 0.0\nsamples = 6\nvalue = [3.337, 0.0]\nclass = Regular Traffic", fillcolor="#e58139ff"] ;
400 -> 404 ;
405 [label="gini = -0.0\nsamples = 24\nvalue = [13.348, 0.0]\nclass = Regular Traffic", fillcolor="#e58139ff"] ;
399 -> 405 ;
406 [label="ip_src_length <= 16.5\ngini = 0.363\nsamples = 329\nvalue = [134.595, 430.673]\nclass = Ad/Tracker Traffic", fillcolor="#399de5af"] ;
398 -> 406 ;
407 [label="gini = 0.0\nsamples = 11\nvalue = [6.118, 0.0]\nclass = Regular Traffic", fillcolor="#e58139ff"] ;
406 -> 407 ;
408 [label="ip_src_length <= 23.5\ngini = 0.354\nsamples = 318\nvalue = [128.477, 430.673]\nclass = Ad/Tracker Traffic", fillcolor="#399de5b3"] ;
406 -> 408 ;
409 [label="ip_dest_subdomain_length <= 0.0\ngini = 0.267\nsamples = 134\nvalue = [46.719, 247.513]\nclass = Ad/Tracker Traffic", fillcolor="#399de5cf"] ;
408 -> 409 ;
410 [label="ip_dest_subdomain_length <= 0.0\ngini = 0.227\nsamples = 117\nvalue = [37.264, 247.513]\nclass = Ad/Tracker Traffic", fillcolor="#399de5d9"] ;
409 -> 410 ;
411 [label="ip_src_length <= 18.5\ngini = 0.113\nsamples = 44\nvalue = [8.899, 138.607]\nclass = Ad/Tracker Traffic", fillcolor="#399de5ef"] ;
410 -> 411 ;
412 [label="gini = 0.0\nsamples = 4\nvalue = [2.225, 0.0]\nclass = Regular Traffic", fillcolor="#e58139ff"] ;
411 -> 412 ;
413 [label="dest_ip_freq <= 0.287\ngini = 0.088\nsamples = 40\nvalue = [6.674, 138.607]\nclass = Ad/Tracker Traffic", fillcolor="#399de5f3"] ;
411 -> 413 ;
414 [label="gini = 0.0\nsamples = 2\nvalue = [1.112, 0.0]\nclass = Regular Traffic", fillcolor="#e58139ff"] ;
413 -> 414 ;
415 [label="ip_src_length <= 19.5\ngini = 0.074\nsamples = 38\nvalue = [5.562, 138.607]\nclass = Ad/Tracker Traffic", fillcolor="#399de5f5"] ;
413 -> 415 ;
416 [label="ip_dest_subdomain_length <= 0.0\ngini = 0.3\nsamples = 6\nvalue = [2.225, 9.901]\nclass = Ad/Tracker Traffic", fillcolor="#399de5c6"] ;
415 -> 416 ;
417 [label="gini = 0.0\nsamples = 2\nvalue = [0.0, 9.901]\nclass = Ad/Tracker Traffic", fillcolor="#399de5ff"] ;
416 -> 417 ;
418 [label="gini = 0.0\nsamples = 4\nvalue = [2.225, 0.0]\nclass = Regular Traffic", fillcolor="#e58139ff"] ;
416 -> 418 ;
419 [label="ip_src_length <= 21.5\ngini = 0.049\nsamples = 32\nvalue = [3.337, 128.707]\nclass = Ad/Tracker Traffic", fillcolor="#399de5f8"] ;
415 -> 419 ;
420 [label="ip_dest_subdomain_length <= 0.0\ngini = 0.082\nsamples = 21\nvalue = [3.337, 74.254]\nclass = Ad/Tracker Traffic", fillcolor="#399de5f4"] ;
419 -> 420 ;
421 [label="ip_dest_subdomain_length <= 0.0\ngini = 0.138\nsamples = 12\nvalue = [2.781, 34.652]\nclass = Ad/Tracker Traffic", fillcolor="#399de5eb"] ;
420 -> 421 ;
422 [label="ip_dest_length <= 0.5\ngini = 0.06\nsamples = 9\nvalue = [1.112, 34.652]\nclass = Ad/Tracker Traffic", fillcolor="#399de5f7"] ;
421 -> 422 ;
423 [label="ssl <= 0.0\ngini = 0.13\nsamples = 5\nvalue = [1.112, 14.851]\nclass = Ad/Tracker Traffic", fillcolor="#399de5ec"] ;
422 -> 423 ;
424 [label="ssl <= 0.0\ngini = 0.3\nsamples = 3\nvalue = [1.112, 4.95]\nclass = Ad/Tracker Traffic", fillcolor="#399de5c6"] ;
423 -> 424 ;
425 [label="gini = 0.0\nsamples = 1\nvalue = [0.0, 4.95]\nclass = Ad/Tracker Traffic", fillcolor="#399de5ff"] ;
424 -> 425 ;
426 [label="gini = -0.0\nsamples = 2\nvalue = [1.112, 0.0]\nclass = Regular Traffic", fillcolor="#e58139ff"] ;
424 -> 426 ;
427 [label="gini = 0.0\nsamples = 2\nvalue = [0.0, 9.901]\nclass = Ad/Tracker Traffic", fillcolor="#399de5ff"] ;
423 -> 427 ;
428 [label="gini = 0.0\nsamples = 4\nvalue = [0.0, 19.801]\nclass = Ad/Tracker Traffic", fillcolor="#399de5ff"] ;
422 -> 428 ;
429 [label="gini = 0.0\nsamples = 3\nvalue = [1.669, 0.0]\nclass = Regular Traffic", fillcolor="#e58139ff"] ;
421 -> 429 ;
430 [label="ssl <= 0.0\ngini = 0.027\nsamples = 9\nvalue = [0.556, 39.602]\nclass = Ad/Tracker Traffic", fillcolor="#399de5fb"] ;
420 -> 430 ;
431 [label="gini = 0.0\nsamples = 7\nvalue = [0.0, 34.652]\nclass = Ad/Tracker Traffic", fillcolor="#399de5ff"] ;
430 -> 431 ;
432 [label="ssl <= 0.0\ngini = 0.182\nsamples = 2\nvalue = [0.556, 4.95]\nclass = Ad/Tracker Traffic", fillcolor="#399de5e2"] ;
430 -> 432 ;
433 [label="gini = 0.0\nsamples = 1\nvalue = [0.556, 0.0]\nclass = Regular Traffic", fillcolor="#e58139ff"] ;
432 -> 433 ;
434 [label="gini = 0.0\nsamples = 1\nvalue = [0.0, 4.95]\nclass = Ad/Tracker Traffic", fillcolor="#399de5ff"] ;
432 -> 434 ;
435 [label="gini = 0.0\nsamples = 11\nvalue = [0.0, 54.453]\nclass = Ad/Tracker Traffic", fillcolor="#399de5ff"] ;
419 -> 435 ;
436 [label="ip_dest_subdomain_length <= 0.0\ngini = 0.328\nsamples = 73\nvalue = [28.365, 108.906]\nclass = Ad/Tracker Traffic", fillcolor="#399de5bd"] ;
410 -> 436 ;
437 [label="ip_dest_subdomain_length <= 0.0\ngini = 0.493\nsamples = 48\nvalue = [23.359, 29.702]\nclass = Ad/Tracker Traffic", fillcolor="#399de536"] ;
436 -> 437 ;
438 [label="ip_dest_subdomain_length <= 0.0\ngini = 0.434\nsamples = 31\nvalue = [13.904, 29.702]\nclass = Ad/Tracker Traffic", fillcolor="#399de588"] ;
437 -> 438 ;
439 [label="gini = 0.0\nsamples = 11\nvalue = [6.118, 0.0]\nclass = Regular Traffic", fillcolor="#e58139ff"] ;
438 -> 439 ;
440 [label="ip_src_length <= 20.5\ngini = 0.329\nsamples = 20\nvalue = [7.786, 29.702]\nclass = Ad/Tracker Traffic", fillcolor="#399de5bc"] ;
438 -> 440 ;
441 [label="ssl <= 0.0\ngini = 0.227\nsamples = 14\nvalue = [4.449, 29.702]\nclass = Ad/Tracker Traffic", fillcolor="#399de5d9"] ;
440 -> 441 ;
442 [label="ip_src_length <= 19.0\ngini = 0.205\nsamples = 13\nvalue = [3.893, 29.702]\nclass = Ad/Tracker Traffic", fillcolor="#399de5de"] ;
441 -> 442 ;
443 [label="gini = 0.0\nsamples = 2\nvalue = [0.0, 9.901]\nclass = Ad/Tracker Traffic", fillcolor="#399de5ff"] ;
442 -> 443 ;
444 [label="ssl <= 0.0\ngini = 0.275\nsamples = 11\nvalue = [3.893, 19.801]\nclass = Ad/Tracker Traffic", fillcolor="#399de5cd"] ;
442 -> 444 ;
445 [label="ssl <= 0.0\ngini = 0.216\nsamples = 9\nvalue = [2.781, 19.801]\nclass = Ad/Tracker Traffic", fillcolor="#399de5db"] ;
444 -> 445 ;
446 [label="gini = 0.0\nsamples = 2\nvalue = [0.0, 9.901]\nclass = Ad/Tracker Traffic", fillcolor="#399de5ff"] ;
445 -> 446 ;
447 [label="ssl <= 0.0\ngini = 0.342\nsamples = 7\nvalue = [2.781, 9.901]\nclass = Ad/Tracker Traffic", fillcolor="#399de5b7"] ;
445 -> 447 ;
448 [label="gini = 0.0\nsamples = 3\nvalue = [1.669, 0.0]\nclass = Regular Traffic", fillcolor="#e58139ff"] ;
447 -> 448 ;
449 [label="ip_dest_length <= 0.5\ngini = 0.182\nsamples = 4\nvalue = [1.112, 9.901]\nclass = Ad/Tracker Traffic", fillcolor="#399de5e2"] ;
447 -> 449 ;
450 [label="gini = 0.182\nsamples = 2\nvalue = [0.556, 4.95]\nclass = Ad/Tracker Traffic", fillcolor="#399de5e2"] ;
449 -> 450 ;
451 [label="gini = 0.182\nsamples = 2\nvalue = [0.556, 4.95]\nclass = Ad/Tracker Traffic", fillcolor="#399de5e2"] ;
449 -> 451 ;
452 [label="gini = -0.0\nsamples = 2\nvalue = [1.112, 0.0]\nclass = Regular Traffic", fillcolor="#e58139ff"] ;
444 -> 452 ;
453 [label="gini = 0.0\nsamples = 1\nvalue = [0.556, 0.0]\nclass = Regular Traffic", fillcolor="#e58139ff"] ;
441 -> 453 ;
454 [label="gini = 0.0\nsamples = 6\nvalue = [3.337, 0.0]\nclass = Regular Traffic", fillcolor="#e58139ff"] ;
440 -> 454 ;
455 [label="gini = 0.0\nsamples = 17\nvalue = [9.455, 0.0]\nclass = Regular Traffic", fillcolor="#e58139ff"] ;
437 -> 455 ;
456 [label="ssl <= 0.0\ngini = 0.112\nsamples = 25\nvalue = [5.006, 79.204]\nclass = Ad/Tracker Traffic", fillcolor="#399de5ef"] ;
436 -> 456 ;
457 [label="gini = 0.0\nsamples = 1\nvalue = [0.556, 0.0]\nclass = Regular Traffic", fillcolor="#e58139ff"] ;
456 -> 457 ;
458 [label="ssl <= 0.0\ngini = 0.101\nsamples = 24\nvalue = [4.449, 79.204]\nclass = Ad/Tracker Traffic", fillcolor="#399de5f1"] ;
456 -> 458 ;
459 [label="ssl <= 0.0\ngini = 0.06\nsamples = 18\nvalue = [2.225, 69.304]\nclass = Ad/Tracker Traffic", fillcolor="#399de5f7"] ;
458 -> 459 ;
460 [label="ssl <= 0.0\ngini = 0.227\nsamples = 7\nvalue = [2.225, 14.851]\nclass = Ad/Tracker Traffic", fillcolor="#399de5d9"] ;
459 -> 460 ;
461 [label="ip_dest_subdomain_length <= 0.0\ngini = 0.07\nsamples = 4\nvalue = [0.556, 14.851]\nclass = Ad/Tracker Traffic", fillcolor="#399de5f5"] ;
460 -> 461 ;
462 [label="ssl <= 0.0\ngini = 0.182\nsamples = 2\nvalue = [0.556, 4.95]\nclass = Ad/Tracker Traffic", fillcolor="#399de5e2"] ;
461 -> 462 ;
463 [label="gini = 0.0\nsamples = 1\nvalue = [0.0, 4.95]\nclass = Ad/Tracker Traffic", fillcolor="#399de5ff"] ;
462 -> 463 ;
464 [label="gini = -0.0\nsamples = 1\nvalue = [0.556, 0.0]\nclass = Regular Traffic", fillcolor="#e58139ff"] ;
462 -> 464 ;
465 [label="gini = 0.0\nsamples = 2\nvalue = [0.0, 9.901]\nclass = Ad/Tracker Traffic", fillcolor="#399de5ff"] ;
461 -> 465 ;
466 [label="gini = -0.0\nsamples = 3\nvalue = [1.669, 0.0]\nclass = Regular Traffic", fillcolor="#e58139ff"] ;
460 -> 466 ;
467 [label="gini = -0.0\nsamples = 11\nvalue = [0.0, 54.453]\nclass = Ad/Tracker Traffic", fillcolor="#399de5ff"] ;
459 -> 467 ;
468 [label="ssl <= 0.0\ngini = 0.3\nsamples = 6\nvalue = [2.225, 9.901]\nclass = Ad/Tracker Traffic", fillcolor="#399de5c6"] ;
458 -> 468 ;
469 [label="gini = 0.0\nsamples = 4\nvalue = [2.225, 0.0]\nclass = Regular Traffic", fillcolor="#e58139ff"] ;
468 -> 469 ;
470 [label="gini = 0.0\nsamples = 2\nvalue = [0.0, 9.901]\nclass = Ad/Tracker Traffic", fillcolor="#399de5ff"] ;
468 -> 470 ;
471 [label="gini = -0.0\nsamples = 17\nvalue = [9.455, 0.0]\nclass = Regular Traffic", fillcolor="#e58139ff"] ;
409 -> 471 ;
472 [label="ip_src_length <= 24.5\ngini = 0.427\nsamples = 184\nvalue = [81.758, 183.16]\nclass = Ad/Tracker Traffic", fillcolor="#399de58d"] ;
408 -> 472 ;
473 [label="ssl <= 0.0\ngini = 0.443\nsamples = 38\nvalue = [20.022, 9.901]\nclass = Regular Traffic", fillcolor="#e5813981"] ;
472 -> 473 ;
474 [label="gini = 0.0\nsamples = 19\nvalue = [10.567, 0.0]\nclass = Regular Traffic", fillcolor="#e58139ff"] ;
473 -> 474 ;
475 [label="ssl <= 0.0\ngini = 0.5\nsamples = 19\nvalue = [9.455, 9.901]\nclass = Ad/Tracker Traffic", fillcolor="#399de50b"] ;
473 -> 475 ;
476 [label="gini = 0.0\nsamples = 2\nvalue = [0.0, 9.901]\nclass = Ad/Tracker Traffic", fillcolor="#399de5ff"] ;
475 -> 476 ;
477 [label="gini = -0.0\nsamples = 17\nvalue = [9.455, 0.0]\nclass = Regular Traffic", fillcolor="#e58139ff"] ;
475 -> 477 ;
478 [label="ssl <= 0.0\ngini = 0.387\nsamples = 146\nvalue = [61.736, 173.259]\nclass = Ad/Tracker Traffic", fillcolor="#399de5a4"] ;
472 -> 478 ;
479 [label="ip_dest_subdomain_length <= 0.0\ngini = 0.37\nsamples = 136\nvalue = [56.174, 173.259]\nclass = Ad/Tracker Traffic", fillcolor="#399de5ac"] ;
478 -> 479 ;
480 [label="ssl <= 0.0\ngini = 0.484\nsamples = 43\nvalue = [20.579, 29.702]\nclass = Ad/Tracker Traffic", fillcolor="#399de54e"] ;
479 -> 480 ;
481 [label="ssl <= 0.0\ngini = 0.446\nsamples = 33\nvalue = [15.017, 29.702]\nclass = Ad/Tracker Traffic", fillcolor="#399de57e"] ;
480 -> 481 ;
482 [label="ip_dest_subdomain_length <= 0.0\ngini = 0.491\nsamples = 31\nvalue = [15.017, 19.801]\nclass = Ad/Tracker Traffic", fillcolor="#399de53e"] ;
481 -> 482 ;
483 [label="ssl <= 0.0\ngini = 0.3\nsamples = 12\nvalue = [4.449, 19.801]\nclass = Ad/Tracker Traffic", fillcolor="#399de5c6"] ;
482 -> 483 ;
484 [label="ip_src_length <= 26.5\ngini = 0.182\nsamples = 8\nvalue = [2.225, 19.801]\nclass = Ad/Tracker Traffic", fillcolor="#399de5e2"] ;
483 -> 484 ;
485 [label="ip_dest_subdomain_length <= 0.0\ngini = 0.3\nsamples = 6\nvalue = [2.225, 9.901]\nclass = Ad/Tracker Traffic", fillcolor="#399de5c6"] ;
484 -> 485 ;
486 [label="gini = 0.0\nsamples = 4\nvalue = [2.225, 0.0]\nclass = Regular Traffic", fillcolor="#e58139ff"] ;
485 -> 486 ;
487 [label="gini = 0.0\nsamples = 2\nvalue = [0.0, 9.901]\nclass = Ad/Tracker Traffic", fillcolor="#399de5ff"] ;
485 -> 487 ;
488 [label="gini = 0.0\nsamples = 2\nvalue = [0.0, 9.901]\nclass = Ad/Tracker Traffic", fillcolor="#399de5ff"] ;
484 -> 488 ;
489 [label="gini = -0.0\nsamples = 4\nvalue = [2.225, 0.0]\nclass = Regular Traffic", fillcolor="#e58139ff"] ;
483 -> 489 ;
490 [label="gini = -0.0\nsamples = 19\nvalue = [10.567, 0.0]\nclass = Regular Traffic", fillcolor="#e58139ff"] ;
482 -> 490 ;
491 [label="gini = 0.0\nsamples = 2\nvalue = [0.0, 9.901]\nclass = Ad/Tracker Traffic", fillcolor="#399de5ff"] ;
481 -> 491 ;
492 [label="gini = 0.0\nsamples = 10\nvalue = [5.562, 0.0]\nclass = Regular Traffic", fillcolor="#e58139ff"] ;
480 -> 492 ;
493 [label="dest_ip_freq <= 0.287\ngini = 0.318\nsamples = 93\nvalue = [35.595, 143.558]\nclass = Ad/Tracker Traffic", fillcolor="#399de5c0"] ;
479 -> 493 ;
494 [label="gini = 0.0\nsamples = 3\nvalue = [1.669, 0.0]\nclass = Regular Traffic", fillcolor="#e58139ff"] ;
493 -> 494 ;
495 [label="ssl <= 0.0\ngini = 0.309\nsamples = 90\nvalue = [33.927, 143.558]\nclass = Ad/Tracker Traffic", fillcolor="#399de5c3"] ;
493 -> 495 ;
496 [label="ssl <= 0.0\ngini = 0.39\nsamples = 59\nvalue = [25.028, 69.304]\nclass = Ad/Tracker Traffic", fillcolor="#399de5a3"] ;
495 -> 496 ;
497 [label="ip_src_length <= 26.5\ngini = 0.275\nsamples = 33\nvalue = [11.68, 59.403]\nclass = Ad/Tracker Traffic", fillcolor="#399de5cd"] ;
496 -> 497 ;
498 [label="ip_dest_subdomain_length <= 0.0\ngini = 0.237\nsamples = 29\nvalue = [9.455, 59.403]\nclass = Ad/Tracker Traffic", fillcolor="#399de5d6"] ;
497 -> 498 ;
499 [label="ip_src_length <= 25.5\ngini = 0.082\nsamples = 7\nvalue = [1.112, 24.751]\nclass = Ad/Tracker Traffic", fillcolor="#399de5f4"] ;
498 -> 499 ;
500 [label="gini = 0.0\nsamples = 2\nvalue = [1.112, 0.0]\nclass = Regular Traffic", fillcolor="#e58139ff"] ;
499 -> 500 ;
501 [label="gini = 0.0\nsamples = 5\nvalue = [0.0, 24.751]\nclass = Ad/Tracker Traffic", fillcolor="#399de5ff"] ;
499 -> 501 ;
502 [label="ip_src_length <= 25.5\ngini = 0.313\nsamples = 22\nvalue = [8.343, 34.652]\nclass = Ad/Tracker Traffic", fillcolor="#399de5c2"] ;
498 -> 502 ;
503 [label="ip_dest_subdomain_length <= 0.0\ngini = 0.255\nsamples = 18\nvalue = [6.118, 34.652]\nclass = Ad/Tracker Traffic", fillcolor="#399de5d2"] ;
502 -> 503 ;
504 [label="gini = 0.0\nsamples = 1\nvalue = [0.556, 0.0]\nclass = Regular Traffic", fillcolor="#e58139ff"] ;
503 -> 504 ;
505 [label="ssl <= 0.0\ngini = 0.238\nsamples = 17\nvalue = [5.562, 34.652]\nclass = Ad/Tracker Traffic", fillcolor="#399de5d6"] ;
503 -> 505 ;
506 [label="ip_dest_subdomain_length <= 0.0\ngini = 0.3\nsamples = 15\nvalue = [5.562, 24.751]\nclass = Ad/Tracker Traffic", fillcolor="#399de5c6"] ;
505 -> 506 ;
507 [label="gini = 0.0\nsamples = 2\nvalue = [1.112, 0.0]\nclass = Regular Traffic", fillcolor="#e58139ff"] ;
506 -> 507 ;
508 [label="ip_dest_subdomain_length <= 0.0\ngini = 0.258\nsamples = 13\nvalue = [4.449, 24.751]\nclass = Ad/Tracker Traffic", fillcolor="#399de5d1"] ;
506 -> 508 ;
509 [label="ip_dest_subdomain_length <= 0.0\ngini = 0.377\nsamples = 8\nvalue = [3.337, 9.901]\nclass = Ad/Tracker Traffic", fillcolor="#399de5a9"] ;
508 -> 509 ;
510 [label="ip_dest_length <= 0.5\ngini = 0.3\nsamples = 6\nvalue = [2.225, 9.901]\nclass = Ad/Tracker Traffic", fillcolor="#399de5c6"] ;
509 -> 510 ;
511 [label="ssl <= 0.0\ngini = 0.247\nsamples = 5\nvalue = [1.669, 9.901]\nclass = Ad/Tracker Traffic", fillcolor="#399de5d4"] ;
510 -> 511 ;
512 [label="gini = 0.0\nsamples = 1\nvalue = [0.0, 4.95]\nclass = Ad/Tracker Traffic", fillcolor="#399de5ff"] ;
511 -> 512 ;
513 [label="ssl <= 0.0\ngini = 0.377\nsamples = 4\nvalue = [1.669, 4.95]\nclass = Ad/Tracker Traffic", fillcolor="#399de5a9"] ;
511 -> 513 ;
514 [label="gini = 0.0\nsamples = 3\nvalue = [1.669, 0.0]\nclass = Regular Traffic", fillcolor="#e58139ff"] ;
513 -> 514 ;
515 [label="gini = 0.0\nsamples = 1\nvalue = [0.0, 4.95]\nclass = Ad/Tracker Traffic", fillcolor="#399de5ff"] ;
513 -> 515 ;
516 [label="gini = 0.0\nsamples = 1\nvalue = [0.556, 0.0]\nclass = Regular Traffic", fillcolor="#e58139ff"] ;
510 -> 516 ;
517 [label="gini = 0.0\nsamples = 2\nvalue = [1.112, 0.0]\nclass = Regular Traffic", fillcolor="#e58139ff"] ;
509 -> 517 ;
518 [label="ssl <= 0.0\ngini = 0.13\nsamples = 5\nvalue = [1.112, 14.851]\nclass = Ad/Tracker Traffic", fillcolor="#399de5ec"] ;
508 -> 518 ;
519 [label="ssl <= 0.0\ngini = 0.07\nsamples = 4\nvalue = [0.556, 14.851]\nclass = Ad/Tracker Traffic", fillcolor="#399de5f5"] ;
518 -> 519 ;
520 [label="ssl <= 0.0\ngini = 0.182\nsamples = 2\nvalue = [0.556, 4.95]\nclass = Ad/Tracker Traffic", fillcolor="#399de5e2"] ;
519 -> 520 ;
521 [label="gini = 0.0\nsamples = 1\nvalue = [0.0, 4.95]\nclass = Ad/Tracker Traffic", fillcolor="#399de5ff"] ;
520 -> 521 ;
522 [label="gini = -0.0\nsamples = 1\nvalue = [0.556, 0.0]\nclass = Regular Traffic", fillcolor="#e58139ff"] ;
520 -> 522 ;
523 [label="gini = 0.0\nsamples = 2\nvalue = [0.0, 9.901]\nclass = Ad/Tracker Traffic", fillcolor="#399de5ff"] ;
519 -> 523 ;
524 [label="gini = 0.0\nsamples = 1\nvalue = [0.556, 0.0]\nclass = Regular Traffic", fillcolor="#e58139ff"] ;
518 -> 524 ;
525 [label="gini = 0.0\nsamples = 2\nvalue = [0.0, 9.901]\nclass = Ad/Tracker Traffic", fillcolor="#399de5ff"] ;
505 -> 525 ;
526 [label="gini = 0.0\nsamples = 4\nvalue = [2.225, 0.0]\nclass = Regular Traffic", fillcolor="#e58139ff"] ;
502 -> 526 ;
527 [label="gini = -0.0\nsamples = 4\nvalue = [2.225, 0.0]\nclass = Regular Traffic", fillcolor="#e58139ff"] ;
497 -> 527 ;
528 [label="ssl <= 0.0\ngini = 0.489\nsamples = 26\nvalue = [13.348, 9.901]\nclass = Regular Traffic", fillcolor="#e5813942"] ;
496 -> 528 ;
529 [label="gini = 0.0\nsamples = 10\nvalue = [5.562, 0.0]\nclass = Regular Traffic", fillcolor="#e58139ff"] ;
528 -> 529 ;
530 [label="ip_src_length <= 27.5\ngini = 0.493\nsamples = 16\nvalue = [7.786, 9.901]\nclass = Ad/Tracker Traffic", fillcolor="#399de536"] ;
528 -> 530 ;
531 [label="ssl <= 0.0\ngini = 0.475\nsamples = 15\nvalue = [7.786, 4.95]\nclass = Regular Traffic", fillcolor="#e581395d"] ;
530 -> 531 ;
532 [label="ip_src_length <= 25.5\ngini = 0.182\nsamples = 2\nvalue = [0.556, 4.95]\nclass = Ad/Tracker Traffic", fillcolor="#399de5e2"] ;
531 -> 532 ;
533 [label="gini = 0.0\nsamples = 1\nvalue = [0.0, 4.95]\nclass = Ad/Tracker Traffic", fillcolor="#399de5ff"] ;
532 -> 533 ;
534 [label="gini = -0.0\nsamples = 1\nvalue = [0.556, 0.0]\nclass = Regular Traffic", fillcolor="#e58139ff"] ;
532 -> 534 ;
535 [label="gini = 0.0\nsamples = 13\nvalue = [7.23, 0.0]\nclass = Regular Traffic", fillcolor="#e58139ff"] ;
531 -> 535 ;
536 [label="gini = 0.0\nsamples = 1\nvalue = [0.0, 4.95]\nclass = Ad/Tracker Traffic", fillcolor="#399de5ff"] ;
530 -> 536 ;
537 [label="ip_dest_subdomain_length <= 0.0\ngini = 0.191\nsamples = 31\nvalue = [8.899, 74.254]\nclass = Ad/Tracker Traffic", fillcolor="#399de5e0"] ;
495 -> 537 ;
538 [label="ssl <= 0.0\ngini = 0.275\nsamples = 22\nvalue = [7.786, 39.602]\nclass = Ad/Tracker Traffic", fillcolor="#399de5cd"] ;
537 -> 538 ;
539 [label="ip_dest_subdomain_length <= 0.0\ngini = 0.182\nsamples = 16\nvalue = [4.449, 39.602]\nclass = Ad/Tracker Traffic", fillcolor="#399de5e2"] ;
538 -> 539 ;
540 [label="ip_dest_length <= 0.5\ngini = 0.088\nsamples = 10\nvalue = [1.669, 34.652]\nclass = Ad/Tracker Traffic", fillcolor="#399de5f3"] ;
539 -> 540 ;
541 [label="ip_dest_subdomain_length <= 0.0\ngini = 0.182\nsamples = 6\nvalue = [1.669, 14.851]\nclass = Ad/Tracker Traffic", fillcolor="#399de5e2"] ;
540 -> 541 ;
542 [label="gini = 0.0\nsamples = 1\nvalue = [0.0, 4.95]\nclass = Ad/Tracker Traffic", fillcolor="#399de5ff"] ;
541 -> 542 ;
543 [label="ip_dest_subdomain_length <= 0.0\ngini = 0.247\nsamples = 5\nvalue = [1.669, 9.901]\nclass = Ad/Tracker Traffic", fillcolor="#399de5d4"] ;
541 -> 543 ;
544 [label="gini = 0.0\nsamples = 1\nvalue = [0.556, 0.0]\nclass = Regular Traffic", fillcolor="#e58139ff"] ;
543 -> 544 ;
545 [label="ssl <= 0.0\ngini = 0.182\nsamples = 4\nvalue = [1.112, 9.901]\nclass = Ad/Tracker Traffic", fillcolor="#399de5e2"] ;
543 -> 545 ;
546 [label="gini = 0.0\nsamples = 1\nvalue = [0.0, 4.95]\nclass = Ad/Tracker Traffic", fillcolor="#399de5ff"] ;
545 -> 546 ;
547 [label="ssl <= 0.0\ngini = 0.3\nsamples = 3\nvalue = [1.112, 4.95]\nclass = Ad/Tracker Traffic", fillcolor="#399de5c6"] ;
545 -> 547 ;
548 [label="gini = -0.0\nsamples = 2\nvalue = [1.112, 0.0]\nclass = Regular Traffic", fillcolor="#e58139ff"] ;
547 -> 548 ;
549 [label="gini = 0.0\nsamples = 1\nvalue = [0.0, 4.95]\nclass = Ad/Tracker Traffic", fillcolor="#399de5ff"] ;
547 -> 549 ;
550 [label="gini = 0.0\nsamples = 4\nvalue = [0.0, 19.801]\nclass = Ad/Tracker Traffic", fillcolor="#399de5ff"] ;
540 -> 550 ;
551 [label="ssl <= 0.0\ngini = 0.461\nsamples = 6\nvalue = [2.781, 4.95]\nclass = Ad/Tracker Traffic", fillcolor="#399de570"] ;
539 -> 551 ;
552 [label="gini = -0.0\nsamples = 5\nvalue = [2.781, 0.0]\nclass = Regular Traffic", fillcolor="#e58139ff"] ;
551 -> 552 ;
553 [label="gini = 0.0\nsamples = 1\nvalue = [0.0, 4.95]\nclass = Ad/Tracker Traffic", fillcolor="#399de5ff"] ;
551 -> 553 ;
554 [label="gini = 0.0\nsamples = 6\nvalue = [3.337, 0.0]\nclass = Regular Traffic", fillcolor="#e58139ff"] ;
538 -> 554 ;
555 [label="ssl <= 0.0\ngini = 0.06\nsamples = 9\nvalue = [1.112, 34.652]\nclass = Ad/Tracker Traffic", fillcolor="#399de5f7"] ;
537 -> 555 ;
556 [label="gini = 0.0\nsamples = 4\nvalue = [0.0, 19.801]\nclass = Ad/Tracker Traffic", fillcolor="#399de5ff"] ;
555 -> 556 ;
557 [label="ip_dest_subdomain_length <= 0.0\ngini = 0.13\nsamples = 5\nvalue = [1.112, 14.851]\nclass = Ad/Tracker Traffic", fillcolor="#399de5ec"] ;
555 -> 557 ;
558 [label="gini = 0.0\nsamples = 3\nvalue = [0.0, 14.851]\nclass = Ad/Tracker Traffic", fillcolor="#399de5ff"] ;
557 -> 558 ;
559 [label="gini = 0.0\nsamples = 2\nvalue = [1.112, 0.0]\nclass = Regular Traffic", fillcolor="#e58139ff"] ;
557 -> 559 ;
560 [label="gini = 0.0\nsamples = 10\nvalue = [5.562, 0.0]\nclass = Regular Traffic", fillcolor="#e58139ff"] ;
478 -> 560 ;
561 [label="ip_dest_subdomain_length <= 0.0\ngini = 0.061\nsamples = 49\nvalue = [6.118, 188.11]\nclass = Ad/Tracker Traffic", fillcolor="#399de5f7"] ;
397 -> 561 ;
562 [label="ip_src_length <= 31.5\ngini = 0.154\nsamples = 20\nvalue = [5.006, 54.453]\nclass = Ad/Tracker Traffic", fillcolor="#399de5e8"] ;
561 -> 562 ;
563 [label="ip_dest_subdomain_length <= 0.0\ngini = 0.109\nsamples = 17\nvalue = [3.337, 54.453]\nclass = Ad/Tracker Traffic", fillcolor="#399de5ef"] ;
562 -> 563 ;
564 [label="ip_dest_subdomain_length <= 0.0\ngini = 0.043\nsamples = 12\nvalue = [1.112, 49.503]\nclass = Ad/Tracker Traffic", fillcolor="#399de5f9"] ;
563 -> 564 ;
565 [label="gini = 0.0\nsamples = 8\nvalue = [0.0, 39.602]\nclass = Ad/Tracker Traffic", fillcolor="#399de5ff"] ;
564 -> 565 ;
566 [label="ip_src_length <= 29.5\ngini = 0.182\nsamples = 4\nvalue = [1.112, 9.901]\nclass = Ad/Tracker Traffic", fillcolor="#399de5e2"] ;
564 -> 566 ;
567 [label="gini = 0.0\nsamples = 2\nvalue = [0.0, 9.901]\nclass = Ad/Tracker Traffic", fillcolor="#399de5ff"] ;
566 -> 567 ;
568 [label="gini = 0.0\nsamples = 2\nvalue = [1.112, 0.0]\nclass = Regular Traffic", fillcolor="#e58139ff"] ;
566 -> 568 ;
569 [label="ssl <= 0.0\ngini = 0.428\nsamples = 5\nvalue = [2.225, 4.95]\nclass = Ad/Tracker Traffic", fillcolor="#399de58c"] ;
563 -> 569 ;
570 [label="gini = -0.0\nsamples = 4\nvalue = [2.225, 0.0]\nclass = Regular Traffic", fillcolor="#e58139ff"] ;
569 -> 570 ;
571 [label="gini = 0.0\nsamples = 1\nvalue = [0.0, 4.95]\nclass = Ad/Tracker Traffic", fillcolor="#399de5ff"] ;
569 -> 571 ;
572 [label="gini = 0.0\nsamples = 3\nvalue = [1.669, 0.0]\nclass = Regular Traffic", fillcolor="#e58139ff"] ;
562 -> 572 ;
573 [label="ip_src_length <= 30.5\ngini = 0.016\nsamples = 29\nvalue = [1.112, 133.657]\nclass = Ad/Tracker Traffic", fillcolor="#399de5fd"] ;
561 -> 573 ;
574 [label="ip_dest_subdomain_length <= 0.0\ngini = 0.082\nsamples = 7\nvalue = [1.112, 24.751]\nclass = Ad/Tracker Traffic", fillcolor="#399de5f4"] ;
573 -> 574 ;
575 [label="gini = 0.0\nsamples = 5\nvalue = [0.0, 24.751]\nclass = Ad/Tracker Traffic", fillcolor="#399de5ff"] ;
574 -> 575 ;
576 [label="gini = -0.0\nsamples = 2\nvalue = [1.112, 0.0]\nclass = Regular Traffic", fillcolor="#e58139ff"] ;
574 -> 576 ;
577 [label="gini = -0.0\nsamples = 22\nvalue = [0.0, 108.906]\nclass = Ad/Tracker Traffic", fillcolor="#399de5ff"] ;
573 -> 577 ;
578 [label="gini = -0.0\nsamples = 17\nvalue = [9.455, 0.0]\nclass = Regular Traffic", fillcolor="#e58139ff"] ;
396 -> 578 ;
579 [label="ip_src_length <= 21.5\ngini = 0.207\nsamples = 2247\nvalue = [677.423, 5093.826]\nclass = Ad/Tracker Traffic", fillcolor="#399de5dd"] ;
395 -> 579 ;
580 [label="ip_dest_subdomain_length <= 0.0\ngini = 0.28\nsamples = 563\nvalue = [201.336, 995.004]\nclass = Ad/Tracker Traffic", fillcolor="#399de5cb"] ;
579 -> 580 ;
581 [label="ip_dest_subdomain_length <= 0.0\ngini = 0.233\nsamples = 480\nvalue = [155.173, 995.004]\nclass = Ad/Tracker Traffic", fillcolor="#399de5d7"] ;
580 -> 581 ;
582 [label="ip_src_length <= 20.5\ngini = 0.191\nsamples = 389\nvalue = [111.791, 930.65]\nclass = Ad/Tracker Traffic", fillcolor="#399de5e0"] ;
581 -> 582 ;
583 [label="ip_src_length <= 15.5\ngini = 0.185\nsamples = 381\nvalue = [107.342, 930.65]\nclass = Ad/Tracker Traffic", fillcolor="#399de5e2"] ;
582 -> 583 ;
584 [label="gini = 0.0\nsamples = 32\nvalue = [0.0, 158.409]\nclass = Ad/Tracker Traffic", fillcolor="#399de5ff"] ;
583 -> 584 ;
585 [label="ip_src_length <= 16.5\ngini = 0.214\nsamples = 349\nvalue = [107.342, 772.242]\nclass = Ad/Tracker Traffic", fillcolor="#399de5dc"] ;
583 -> 585 ;
586 [label="gini = 0.0\nsamples = 12\nvalue = [6.674, 0.0]\nclass = Regular Traffic", fillcolor="#e58139ff"] ;
585 -> 586 ;
587 [label="ip_dest_subdomain_length <= 0.0\ngini = 0.204\nsamples = 337\nvalue = [100.668, 772.242]\nclass = Ad/Tracker Traffic", fillcolor="#399de5de"] ;
585 -> 587 ;
588 [label="ssl <= 0.0\ngini = 0.148\nsamples = 162\nvalue = [39.489, 450.474]\nclass = Ad/Tracker Traffic", fillcolor="#399de5e9"] ;
587 -> 588 ;
589 [label="ip_dest_subdomain_length <= 0.0\ngini = 0.139\nsamples = 157\nvalue = [36.708, 450.474]\nclass = Ad/Tracker Traffic", fillcolor="#399de5ea"] ;
588 -> 589 ;
590 [label="gini = 0.0\nsamples = 14\nvalue = [0.0, 69.304]\nclass = Ad/Tracker Traffic", fillcolor="#399de5ff"] ;
589 -> 590 ;
591 [label="ip_dest_subdomain_length <= 0.0\ngini = 0.16\nsamples = 143\nvalue = [36.708, 381.171]\nclass = Ad/Tracker Traffic", fillcolor="#399de5e6"] ;
589 -> 591 ;
592 [label="ip_dest_subdomain_length <= 0.0\ngini = 0.264\nsamples = 61\nvalue = [21.135, 113.856]\nclass = Ad/Tracker Traffic", fillcolor="#399de5d0"] ;
591 -> 592 ;
593 [label="ssl <= 0.0\ngini = 0.188\nsamples = 47\nvalue = [13.348, 113.856]\nclass = Ad/Tracker Traffic", fillcolor="#399de5e1"] ;
592 -> 593 ;
594 [label="gini = 0.0\nsamples = 2\nvalue = [1.112, 0.0]\nclass = Regular Traffic", fillcolor="#e58139ff"] ;
593 -> 594 ;
595 [label="ip_dest_subdomain_length <= 0.0\ngini = 0.175\nsamples = 45\nvalue = [12.236, 113.856]\nclass = Ad/Tracker Traffic", fillcolor="#399de5e4"] ;
593 -> 595 ;
596 [label="ip_dest_subdomain_length <= 0.0\ngini = 0.232\nsamples = 38\nvalue = [12.236, 79.204]\nclass = Ad/Tracker Traffic", fillcolor="#399de5d8"] ;
595 -> 596 ;
597 [label="ip_dest_subdomain_length <= 0.0\ngini = 0.172\nsamples = 31\nvalue = [8.343, 79.204]\nclass = Ad/Tracker Traffic", fillcolor="#399de5e4"] ;
596 -> 597 ;
598 [label="ip_dest_subdomain_length <= 0.0\ngini = 0.283\nsamples = 17\nvalue = [6.118, 29.702]\nclass = Ad/Tracker Traffic", fillcolor="#399de5ca"] ;
597 -> 598 ;
599 [label="ip_src_length <= 19.5\ngini = 0.205\nsamples = 13\nvalue = [3.893, 29.702]\nclass = Ad/Tracker Traffic", fillcolor="#399de5de"] ;
598 -> 599 ;
600 [label="gini = 0.0\nsamples = 2\nvalue = [1.112, 0.0]\nclass = Regular Traffic", fillcolor="#e58139ff"] ;
599 -> 600 ;
601 [label="ssl <= 0.0\ngini = 0.157\nsamples = 11\nvalue = [2.781, 29.702]\nclass = Ad/Tracker Traffic", fillcolor="#399de5e7"] ;
599 -> 601 ;
602 [label="ssl <= 0.0\ngini = 0.227\nsamples = 7\nvalue = [2.225, 14.851]\nclass = Ad/Tracker Traffic", fillcolor="#399de5d9"] ;
601 -> 602 ;
603 [label="ssl <= 0.0\ngini = 0.13\nsamples = 5\nvalue = [1.112, 14.851]\nclass = Ad/Tracker Traffic", fillcolor="#399de5ec"] ;
602 -> 603 ;
604 [label="gini = 0.0\nsamples = 1\nvalue = [0.0, 4.95]\nclass = Ad/Tracker Traffic", fillcolor="#399de5ff"] ;
603 -> 604 ;
605 [label="ssl <= 0.0\ngini = 0.182\nsamples = 4\nvalue = [1.112, 9.901]\nclass = Ad/Tracker Traffic", fillcolor="#399de5e2"] ;
603 -> 605 ;
606 [label="gini = 0.0\nsamples = 1\nvalue = [0.556, 0.0]\nclass = Regular Traffic", fillcolor="#e58139ff"] ;
605 -> 606 ;
607 [label="ip_dest_length <= 0.5\ngini = 0.101\nsamples = 3\nvalue = [0.556, 9.901]\nclass = Ad/Tracker Traffic", fillcolor="#399de5f1"] ;
605 -> 607 ;
608 [label="gini = 0.182\nsamples = 2\nvalue = [0.556, 4.95]\nclass = Ad/Tracker Traffic", fillcolor="#399de5e2"] ;
607 -> 608 ;
609 [label="gini = 0.0\nsamples = 1\nvalue = [0.0, 4.95]\nclass = Ad/Tracker Traffic", fillcolor="#399de5ff"] ;
607 -> 609 ;
610 [label="gini = -0.0\nsamples = 2\nvalue = [1.112, 0.0]\nclass = Regular Traffic", fillcolor="#e58139ff"] ;
602 -> 610 ;
611 [label="ssl <= 0.0\ngini = 0.07\nsamples = 4\nvalue = [0.556, 14.851]\nclass = Ad/Tracker Traffic", fillcolor="#399de5f5"] ;
601 -> 611 ;
612 [label="gini = 0.0\nsamples = 2\nvalue = [0.0, 9.901]\nclass = Ad/Tracker Traffic", fillcolor="#399de5ff"] ;
611 -> 612 ;
613 [label="ssl <= 0.0\ngini = 0.182\nsamples = 2\nvalue = [0.556, 4.95]\nclass = Ad/Tracker Traffic", fillcolor="#399de5e2"] ;
611 -> 613 ;
614 [label="gini = 0.0\nsamples = 1\nvalue = [0.556, 0.0]\nclass = Regular Traffic", fillcolor="#e58139ff"] ;
613 -> 614 ;
615 [label="gini = 0.0\nsamples = 1\nvalue = [0.0, 4.95]\nclass = Ad/Tracker Traffic", fillcolor="#399de5ff"] ;
613 -> 615 ;
616 [label="gini = 0.0\nsamples = 4\nvalue = [2.225, 0.0]\nclass = Regular Traffic", fillcolor="#e58139ff"] ;
598 -> 616 ;
617 [label="ip_src_length <= 19.0\ngini = 0.082\nsamples = 14\nvalue = [2.225, 49.503]\nclass = Ad/Tracker Traffic", fillcolor="#399de5f4"] ;
597 -> 617 ;
618 [label="gini = 0.0\nsamples = 6\nvalue = [0.0, 29.702]\nclass = Ad/Tracker Traffic", fillcolor="#399de5ff"] ;
617 -> 618 ;
619 [label="ssl <= 0.0\ngini = 0.182\nsamples = 8\nvalue = [2.225, 19.801]\nclass = Ad/Tracker Traffic", fillcolor="#399de5e2"] ;
617 -> 619 ;
620 [label="gini = 0.0\nsamples = 3\nvalue = [0.0, 14.851]\nclass = Ad/Tracker Traffic", fillcolor="#399de5ff"] ;
619 -> 620 ;
621 [label="ssl <= 0.0\ngini = 0.428\nsamples = 5\nvalue = [2.225, 4.95]\nclass = Ad/Tracker Traffic", fillcolor="#399de58c"] ;
619 -> 621 ;
622 [label="gini = 0.0\nsamples = 3\nvalue = [1.669, 0.0]\nclass = Regular Traffic", fillcolor="#e58139ff"] ;
621 -> 622 ;
623 [label="ssl <= 0.0\ngini = 0.182\nsamples = 2\nvalue = [0.556, 4.95]\nclass = Ad/Tracker Traffic", fillcolor="#399de5e2"] ;
621 -> 623 ;
624 [label="gini = 0.0\nsamples = 1\nvalue = [0.0, 4.95]\nclass = Ad/Tracker Traffic", fillcolor="#399de5ff"] ;
623 -> 624 ;
625 [label="gini = -0.0\nsamples = 1\nvalue = [0.556, 0.0]\nclass = Regular Traffic", fillcolor="#e58139ff"] ;
623 -> 625 ;
626 [label="gini = -0.0\nsamples = 7\nvalue = [3.893, 0.0]\nclass = Regular Traffic", fillcolor="#e58139ff"] ;
596 -> 626 ;
627 [label="gini = 0.0\nsamples = 7\nvalue = [0.0, 34.652]\nclass = Ad/Tracker Traffic", fillcolor="#399de5ff"] ;
595 -> 627 ;
628 [label="gini = 0.0\nsamples = 14\nvalue = [7.786, 0.0]\nclass = Regular Traffic", fillcolor="#e58139ff"] ;
592 -> 628 ;
629 [label="ssl <= 0.0\ngini = 0.104\nsamples = 82\nvalue = [15.573, 267.314]\nclass = Ad/Tracker Traffic", fillcolor="#399de5f0"] ;
591 -> 629 ;
630 [label="ip_dest_subdomain_length <= 0.0\ngini = 0.055\nsamples = 44\nvalue = [5.006, 173.259]\nclass = Ad/Tracker Traffic", fillcolor="#399de5f8"] ;
629 -> 630 ;
631 [label="ssl <= 0.0\ngini = 0.039\nsamples = 39\nvalue = [3.337, 163.359]\nclass = Ad/Tracker Traffic", fillcolor="#399de5fa"] ;
630 -> 631 ;
632 [label="gini = 0.0\nsamples = 17\nvalue = [0.0, 84.155]\nclass = Ad/Tracker Traffic", fillcolor="#399de5ff"] ;
631 -> 632 ;
633 [label="ssl <= 0.0\ngini = 0.078\nsamples = 22\nvalue = [3.337, 79.204]\nclass = Ad/Tracker Traffic", fillcolor="#399de5f4"] ;
631 -> 633 ;
634 [label="gini = 0.0\nsamples = 1\nvalue = [0.556, 0.0]\nclass = Regular Traffic", fillcolor="#e58139ff"] ;
633 -> 634 ;
635 [label="ssl <= 0.0\ngini = 0.066\nsamples = 21\nvalue = [2.781, 79.204]\nclass = Ad/Tracker Traffic", fillcolor="#399de5f6"] ;
633 -> 635 ;
636 [label="ip_dest_subdomain_length <= 0.0\ngini = 0.182\nsamples = 4\nvalue = [1.112, 9.901]\nclass = Ad/Tracker Traffic", fillcolor="#399de5e2"] ;
635 -> 636 ;
637 [label="gini = 0.0\nsamples = 2\nvalue = [1.112, 0.0]\nclass = Regular Traffic", fillcolor="#e58139ff"] ;
636 -> 637 ;
638 [label="gini = 0.0\nsamples = 2\nvalue = [0.0, 9.901]\nclass = Ad/Tracker Traffic", fillcolor="#399de5ff"] ;
636 -> 638 ;
639 [label="ip_dest_subdomain_length <= 0.0\ngini = 0.046\nsamples = 17\nvalue = [1.669, 69.304]\nclass = Ad/Tracker Traffic", fillcolor="#399de5f9"] ;
635 -> 639 ;
640 [label="ip_src_length <= 19.0\ngini = 0.018\nsamples = 13\nvalue = [0.556, 59.403]\nclass = Ad/Tracker Traffic", fillcolor="#399de5fd"] ;
639 -> 640 ;
641 [label="ip_dest_subdomain_length <= 0.0\ngini = 0.101\nsamples = 3\nvalue = [0.556, 9.901]\nclass = Ad/Tracker Traffic", fillcolor="#399de5f1"] ;
640 -> 641 ;
642 [label="gini = 0.0\nsamples = 1\nvalue = [0.556, 0.0]\nclass = Regular Traffic", fillcolor="#e58139ff"] ;
641 -> 642 ;
643 [label="gini = 0.0\nsamples = 2\nvalue = [0.0, 9.901]\nclass = Ad/Tracker Traffic", fillcolor="#399de5ff"] ;
641 -> 643 ;
644 [label="gini = 0.0\nsamples = 10\nvalue = [0.0, 49.503]\nclass = Ad/Tracker Traffic", fillcolor="#399de5ff"] ;
640 -> 644 ;
645 [label="ssl <= 0.0\ngini = 0.182\nsamples = 4\nvalue = [1.112, 9.901]\nclass = Ad/Tracker Traffic", fillcolor="#399de5e2"] ;
639 -> 645 ;
646 [label="gini = 0.0\nsamples = 2\nvalue = [0.0, 9.901]\nclass = Ad/Tracker Traffic", fillcolor="#399de5ff"] ;
645 -> 646 ;
647 [label="gini = -0.0\nsamples = 2\nvalue = [1.112, 0.0]\nclass = Regular Traffic", fillcolor="#e58139ff"] ;
645 -> 647 ;
648 [label="ssl <= 0.0\ngini = 0.247\nsamples = 5\nvalue = [1.669, 9.901]\nclass = Ad/Tracker Traffic", fillcolor="#399de5d4"] ;
630 -> 648 ;
649 [label="gini = 0.0\nsamples = 3\nvalue = [1.669, 0.0]\nclass = Regular Traffic", fillcolor="#e58139ff"] ;
648 -> 649 ;
650 [label="gini = 0.0\nsamples = 2\nvalue = [0.0, 9.901]\nclass = Ad/Tracker Traffic", fillcolor="#399de5ff"] ;
648 -> 650 ;
651 [label="ssl <= 0.0\ngini = 0.182\nsamples = 38\nvalue = [10.567, 94.055]\nclass = Ad/Tracker Traffic", fillcolor="#399de5e2"] ;
629 -> 651 ;
652 [label="gini = 0.0\nsamples = 2\nvalue = [1.112, 0.0]\nclass = Regular Traffic", fillcolor="#e58139ff"] ;
651 -> 652 ;
653 [label="ip_dest_subdomain_length <= 0.0\ngini = 0.166\nsamples = 36\nvalue = [9.455, 94.055]\nclass = Ad/Tracker Traffic", fillcolor="#399de5e5"] ;
651 -> 653 ;
654 [label="ip_dest_subdomain_length <= 0.0\ngini = 0.123\nsamples = 26\nvalue = [5.562, 79.204]\nclass = Ad/Tracker Traffic", fillcolor="#399de5ed"] ;
653 -> 654 ;
655 [label="ip_dest_subdomain_length <= 0.0\ngini = 0.216\nsamples = 18\nvalue = [5.562, 39.602]\nclass = Ad/Tracker Traffic", fillcolor="#399de5db"] ;
654 -> 655 ;
656 [label="ssl <= 0.0\ngini = 0.101\nsamples = 12\nvalue = [2.225, 39.602]\nclass = Ad/Tracker Traffic", fillcolor="#399de5f1"] ;
655 -> 656 ;
657 [label="gini = 0.0\nsamples = 3\nvalue = [1.669, 0.0]\nclass = Regular Traffic", fillcolor="#e58139ff"] ;
656 -> 657 ;
658 [label="ip_src_length <= 19.0\ngini = 0.027\nsamples = 9\nvalue = [0.556, 39.602]\nclass = Ad/Tracker Traffic", fillcolor="#399de5fb"] ;
656 -> 658 ;
659 [label="gini = 0.0\nsamples = 1\nvalue = [0.556, 0.0]\nclass = Regular Traffic", fillcolor="#e58139ff"] ;
658 -> 659 ;
660 [label="gini = 0.0\nsamples = 8\nvalue = [0.0, 39.602]\nclass = Ad/Tracker Traffic", fillcolor="#399de5ff"] ;
658 -> 660 ;
661 [label="gini = 0.0\nsamples = 6\nvalue = [3.337, 0.0]\nclass = Regular Traffic", fillcolor="#e58139ff"] ;
655 -> 661 ;
662 [label="gini = 0.0\nsamples = 8\nvalue = [0.0, 39.602]\nclass = Ad/Tracker Traffic", fillcolor="#399de5ff"] ;
654 -> 662 ;
663 [label="ip_dest_subdomain_length <= 0.0\ngini = 0.329\nsamples = 10\nvalue = [3.893, 14.851]\nclass = Ad/Tracker Traffic", fillcolor="#399de5bc"] ;
653 -> 663 ;
664 [label="gini = 0.0\nsamples = 5\nvalue = [2.781, 0.0]\nclass = Regular Traffic", fillcolor="#e58139ff"] ;
663 -> 664 ;
665 [label="ssl <= 0.0\ngini = 0.13\nsamples = 5\nvalue = [1.112, 14.851]\nclass = Ad/Tracker Traffic", fillcolor="#399de5ec"] ;
663 -> 665 ;
666 [label="ssl <= 0.0\ngini = 0.3\nsamples = 3\nvalue = [1.112, 4.95]\nclass = Ad/Tracker Traffic", fillcolor="#399de5c6"] ;
665 -> 666 ;
667 [label="gini = 0.0\nsamples = 1\nvalue = [0.0, 4.95]\nclass = Ad/Tracker Traffic", fillcolor="#399de5ff"] ;
666 -> 667 ;
668 [label="gini = -0.0\nsamples = 2\nvalue = [1.112, 0.0]\nclass = Regular Traffic", fillcolor="#e58139ff"] ;
666 -> 668 ;
669 [label="gini = 0.0\nsamples = 2\nvalue = [0.0, 9.901]\nclass = Ad/Tracker Traffic", fillcolor="#399de5ff"] ;
665 -> 669 ;
670 [label="gini = -0.0\nsamples = 5\nvalue = [2.781, 0.0]\nclass = Regular Traffic", fillcolor="#e58139ff"] ;
588 -> 670 ;
671 [label="ip_src_length <= 17.5\ngini = 0.268\nsamples = 175\nvalue = [61.179, 321.767]\nclass = Ad/Tracker Traffic", fillcolor="#399de5cf"] ;
587 -> 671 ;
672 [label="ip_dest_subdomain_length <= 0.0\ngini = 0.08\nsamples = 43\nvalue = [6.674, 153.458]\nclass = Ad/Tracker Traffic", fillcolor="#399de5f4"] ;
671 -> 672 ;
673 [label="ip_dest_subdomain_length <= 0.0\ngini = 0.021\nsamples = 34\nvalue = [1.669, 153.458]\nclass = Ad/Tracker Traffic", fillcolor="#399de5fc"] ;
672 -> 673 ;
674 [label="gini = 0.0\nsamples = 3\nvalue = [1.669, 0.0]\nclass = Regular Traffic", fillcolor="#e58139ff"] ;
673 -> 674 ;
675 [label="gini = 0.0\nsamples = 31\nvalue = [0.0, 153.458]\nclass = Ad/Tracker Traffic", fillcolor="#399de5ff"] ;
673 -> 675 ;
676 [label="gini = 0.0\nsamples = 9\nvalue = [5.006, 0.0]\nclass = Regular Traffic", fillcolor="#e58139ff"] ;
672 -> 676 ;
677 [label="ip_src_length <= 19.5\ngini = 0.37\nsamples = 132\nvalue = [54.505, 168.309]\nclass = Ad/Tracker Traffic", fillcolor="#399de5ac"] ;
671 -> 677 ;
678 [label="gini = 0.0\nsamples = 60\nvalue = [33.371, 0.0]\nclass = Regular Traffic", fillcolor="#e58139ff"] ;
677 -> 678 ;
679 [label="ip_dest_subdomain_length <= 0.0\ngini = 0.198\nsamples = 72\nvalue = [21.135, 168.309]\nclass = Ad/Tracker Traffic", fillcolor="#399de5df"] ;
677 -> 679 ;
680 [label="gini = 0.0\nsamples = 23\nvalue = [12.792, 0.0]\nclass = Regular Traffic", fillcolor="#e58139ff"] ;
679 -> 680 ;
681 [label="ssl <= 0.0\ngini = 0.09\nsamples = 49\nvalue = [8.343, 168.309]\nclass = Ad/Tracker Traffic", fillcolor="#399de5f2"] ;
679 -> 681 ;
682 [label="gini = 0.0\nsamples = 3\nvalue = [1.669, 0.0]\nclass = Regular Traffic", fillcolor="#e58139ff"] ;
681 -> 682 ;
683 [label="ip_dest_subdomain_length <= 0.0\ngini = 0.073\nsamples = 46\nvalue = [6.674, 168.309]\nclass = Ad/Tracker Traffic", fillcolor="#399de5f5"] ;
681 -> 683 ;
684 [label="gini = 0.0\nsamples = 21\nvalue = [0.0, 103.956]\nclass = Ad/Tracker Traffic", fillcolor="#399de5ff"] ;
683 -> 684 ;
685 [label="ip_dest_subdomain_length <= 0.0\ngini = 0.17\nsamples = 25\nvalue = [6.674, 64.353]\nclass = Ad/Tracker Traffic", fillcolor="#399de5e5"] ;
683 -> 685 ;
686 [label="gini = 0.0\nsamples = 12\nvalue = [6.674, 0.0]\nclass = Regular Traffic", fillcolor="#e58139ff"] ;
685 -> 686 ;
687 [label="gini = -0.0\nsamples = 13\nvalue = [0.0, 64.353]\nclass = Ad/Tracker Traffic", fillcolor="#399de5ff"] ;
685 -> 687 ;
688 [label="gini = -0.0\nsamples = 8\nvalue = [4.449, 0.0]\nclass = Regular Traffic", fillcolor="#e58139ff"] ;
582 -> 688 ;
689 [label="ip_dest_subdomain_length <= 0.0\ngini = 0.481\nsamples = 91\nvalue = [43.382, 64.353]\nclass = Ad/Tracker Traffic", fillcolor="#399de553"] ;
581 -> 689 ;
690 [label="gini = -0.0\nsamples = 78\nvalue = [43.382, 0.0]\nclass = Regular Traffic", fillcolor="#e58139ff"] ;
689 -> 690 ;
691 [label="gini = 0.0\nsamples = 13\nvalue = [0.0, 64.353]\nclass = Ad/Tracker Traffic", fillcolor="#399de5ff"] ;
689 -> 691 ;
692 [label="gini = -0.0\nsamples = 83\nvalue = [46.163, 0.0]\nclass = Regular Traffic", fillcolor="#e58139ff"] ;
580 -> 692 ;
693 [label="ip_src_length <= 23.5\ngini = 0.186\nsamples = 1684\nvalue = [476.087, 4098.822]\nclass = Ad/Tracker Traffic", fillcolor="#399de5e1"] ;
579 -> 693 ;
694 [label="gini = 0.0\nsamples = 82\nvalue = [0.0, 405.922]\nclass = Ad/Tracker Traffic", fillcolor="#399de5ff"] ;
693 -> 694 ;
695 [label="ip_src_length <= 30.5\ngini = 0.202\nsamples = 1602\nvalue = [476.087, 3692.9]\nclass = Ad/Tracker Traffic", fillcolor="#399de5de"] ;
693 -> 695 ;
696 [label="ip_src_length <= 29.5\ngini = 0.223\nsamples = 1376\nvalue = [432.705, 2960.26]\nclass = Ad/Tracker Traffic", fillcolor="#399de5da"] ;
695 -> 696 ;
697 [label="ip_dest_subdomain_length <= 0.0\ngini = 0.215\nsamples = 1313\nvalue = [404.896, 2895.907]\nclass = Ad/Tracker Traffic", fillcolor="#399de5db"] ;
696 -> 697 ;
698 [label="ip_src_length <= 24.5\ngini = 0.308\nsamples = 250\nvalue = [93.994, 400.972]\nclass = Ad/Tracker Traffic", fillcolor="#399de5c3"] ;
697 -> 698 ;
699 [label="ip_dest_subdomain_length <= 0.0\ngini = 0.363\nsamples = 59\nvalue = [31.702, 9.901]\nclass = Regular Traffic", fillcolor="#e58139af"] ;
698 -> 699 ;
700 [label="ip_dest_subdomain_length <= 0.0\ngini = 0.3\nsamples = 6\nvalue = [2.225, 9.901]\nclass = Ad/Tracker Traffic", fillcolor="#399de5c6"] ;
699 -> 700 ;
701 [label="gini = -0.0\nsamples = 4\nvalue = [2.225, 0.0]\nclass = Regular Traffic", fillcolor="#e58139ff"] ;
700 -> 701 ;
702 [label="gini = 0.0\nsamples = 2\nvalue = [0.0, 9.901]\nclass = Ad/Tracker Traffic", fillcolor="#399de5ff"] ;
700 -> 702 ;
703 [label="gini = 0.0\nsamples = 53\nvalue = [29.477, 0.0]\nclass = Regular Traffic", fillcolor="#e58139ff"] ;
699 -> 703 ;
704 [label="ip_dest_subdomain_length <= 0.0\ngini = 0.237\nsamples = 191\nvalue = [62.292, 391.071]\nclass = Ad/Tracker Traffic", fillcolor="#399de5d6"] ;
698 -> 704 ;
705 [label="ssl <= 0.0\ngini = 0.191\nsamples = 163\nvalue = [46.719, 391.071]\nclass = Ad/Tracker Traffic", fillcolor="#399de5e1"] ;
704 -> 705 ;
706 [label="ip_dest_subdomain_length <= 0.0\ngini = 0.482\nsamples = 14\nvalue = [7.23, 4.95]\nclass = Regular Traffic", fillcolor="#e5813950"] ;
705 -> 706 ;
707 [label="gini = 0.0\nsamples = 1\nvalue = [0.0, 4.95]\nclass = Ad/Tracker Traffic", fillcolor="#399de5ff"] ;
706 -> 707 ;
708 [label="gini = 0.0\nsamples = 13\nvalue = [7.23, 0.0]\nclass = Regular Traffic", fillcolor="#e58139ff"] ;
706 -> 708 ;
709 [label="ip_dest_subdomain_length <= 0.0\ngini = 0.168\nsamples = 149\nvalue = [39.489, 386.121]\nclass = Ad/Tracker Traffic", fillcolor="#399de5e5"] ;
705 -> 709 ;
710 [label="ip_dest_subdomain_length <= 0.0\ngini = 0.227\nsamples = 119\nvalue = [37.82, 252.464]\nclass = Ad/Tracker Traffic", fillcolor="#399de5d9"] ;
709 -> 710 ;
711 [label="ssl <= 0.0\ngini = 0.178\nsamples = 85\nvalue = [23.359, 212.862]\nclass = Ad/Tracker Traffic", fillcolor="#399de5e3"] ;
710 -> 711 ;
712 [label="ip_src_length <= 28.5\ngini = 0.175\nsamples = 84\nvalue = [22.803, 212.862]\nclass = Ad/Tracker Traffic", fillcolor="#399de5e4"] ;
711 -> 712 ;
713 [label="ssl <= 0.0\ngini = 0.207\nsamples = 72\nvalue = [21.691, 163.359]\nclass = Ad/Tracker Traffic", fillcolor="#399de5dd"] ;
712 -> 713 ;
714 [label="gini = 0.0\nsamples = 6\nvalue = [3.337, 0.0]\nclass = Regular Traffic", fillcolor="#e58139ff"] ;
713 -> 714 ;
715 [label="ssl <= 0.0\ngini = 0.182\nsamples = 66\nvalue = [18.354, 163.359]\nclass = Ad/Tracker Traffic", fillcolor="#399de5e2"] ;
713 -> 715 ;
716 [label="ip_src_length <= 27.5\ngini = 0.213\nsamples = 58\nvalue = [17.798, 128.707]\nclass = Ad/Tracker Traffic", fillcolor="#399de5dc"] ;
715 -> 716 ;
